solver_type L2R_L2LOSS_SVC_DUAL
nr_class 6
label 1 2 3 4 5 6
nr_feature 18624
bias -1
w
-0.001455733827727501 -0.006012202514470269 0.005884368214928564 0.01190940629896474 -0.004380981512540642 -0.001558771134531306 
-0.001722940223594073 0.00218778675786228 0.005178019821930414 -0.01439878015057516 -0.002849164007243927 0.005552103811830965 
0.004820834978245916 -0.01434868555333311 0.009312568372497722 -0.006974953995943618 -0.01392158402070967 -0.03234083747101379 
-0.0078142896581088 0.0004094950445275147 -0.013962910190008 -0.009155862205380692 -0.0005500529823786464 0.02605833799742909 
-0.0008682801988265812 -0.002371046540366205 0.001397971947464188 -0.01445857805914307 -0.003772464681158176 0.001835683254444021 
-0.005157225095526785 -0.01088943103012327 0.01818338003400554 -0.0139991430694552 -0.008284493464531474 0.003601045534315409 
-0.004265435546618371 0.0180254947237346 0.002542797659700727 -0.003482867920269507 -0.0001875530491660749 -0.008286429200243655 
-0.001682483111883733 0.001479296433451568 0.006391154954757177 0.007948284891956857 -0.0001746079200487023 -0.007909515798870816 
-0.003143278958547833 -0.006095038630134008 -0.0002650874372589629 -0.004894470124130692 -0.001357169564416669 0.01364222100159389 
-0.003600948292898875 -0.003281298026373238 0.001351152588748389 0.0005181854111814119 -0.0009098188203093714 0.00498979589724044 
0.009603703619367859 -0.006402077599862881 -0.0008023755617807243 0.001739283468528877 -0.00300019920163458 -0.003719276396137384 
-0.02680640442968971 -0.002498515777875183 0.002478766061545699 0.003906609854169993 0.004400967202802115 -0.02172648412647643 
-0.01778029978878271 0.003465300555248451 0.004601563010569809 0.006641788845687776 -0.001947218254635746 -0.0004344434721268026 
-0.007757372165409578 -0.001091952276339372 0.007453374799435423 -0.0006224783161549298 -0.001295264423283572 -0.0007408514649101931 
-0.002655490476781466 0.002330551477947704 0.004289334003385334 -0.006693966955561571 -0.0003910232096011919 0.0009712056221211052 
-0.005591154773080875 -0.01117664010200892 0.001703197432270811 0.008671532728582515 0.0009208484907212109 -0.002048677335620748 
-0.004283160139347234 0.00539302119715972 0.005653893048570551 -0.01044927893860443 0.001859037217195624 -0.00328305121477146 
-0.003530490889337421 0.002851464277473059 0.004264325131083305 -0.003471000909267964 0.003473371679836937 -0.004186761217419809 
-0.01463306446808566 0.001719837536836974 0.005225753649777528 -0.0215421424768492 0.01418300871715618 0.01791233776003328 
-0.038583425285681 0.000755818250018944 0.008970691203269392 -0.005626925740728916 0.008594087577013937 0.01496924237089464 
-0.01614788866751998 0.009640969651516723 0.004808146874886086 -0.00984216846655366 0.002960872635989752 0.008438721734091286 
-0.004698051469339617 0.006298053255162844 9.525703687394136e-05 -0.002659540265215853 0.001112882656342568 -0.00062690208685892 
-0.002349813803982627 0.001505569056549539 0.0002712112970301833 0.0022426555601832 0.0007734647583204836 -0.003106176350421709 
-0.007937120641395607 -0.004203811592967484 0.002316487070634557 0.000414023685886724 -0.0001755779724732871 0.009311571793519376 
-0.00568109497998264 -0.001791177070023346 0.005681066827998561 0.007136451214735625 -0.0002903519123103734 -0.007408407744915768 
-0.003310029337136342 -7.703430616574697e-05 0.004056376633136865 -0.001906070213592197 -0.0008296002925139203 0.002669921890233598 
-0.006149648006157652 0.004172649454436618 0.01068109641937059 0.0003626947490809487 -0.005307791234549414 6.537974754129204e-05 
-0.006167087749010771 -0.008627950333298655 0.01419470294771574 0.01221032162985729 -0.005717081754036869 -0.0003395439845115717 
-0.002537694445226807 -0.01695416872014424 0.03219928991647193 -0.008039379500276066 -0.0005565574766407615 -0.01329015609566341 
-0.003255383564964735 -0.01148904148662909 0.01258526674534306 0.006594972780676711 -0.006488247715409299 0.004421911056446364 
-0.005338400568508646 -0.003688758452086097 0.00544166175009763 0.004869903497097653 -0.004295516196129879 0.002205502624809627 
-0.003845577195767101 0.01152329225201329 -0.0007354512678676287 -0.004406637363942846 -0.00540092722715444 0.001808285663744345 
0.02859176208693478 -0.006746941494841161 0.06344045799260922 -0.01094236451938045 -0.02010968512535793 -0.01927948812038882 
0 -0.001222253647419718 0.001127117623139899 0.0002094896147311171 -0.00136026010115979 -0.0002927574111250805 
-4.97106953348025e-05 -7.04457992008804e-05 0 0.0001407602696969338 0 0 
0 0 0 0 0 0 
-0.007903005293326567 0.01206177193556079 0.01308649344666673 -0.004661602095747996 -0.005044237525403309 -0.0131969434187435 
0 0 0 0 0 0 
0 -0.002634009943100392 -7.115076756936123e-20 -0.002024733556099118 -0.0003514614114214169 0 
0 0 0 0 0 0 
-0.008281944437117555 -0.01422757492644605 0.02910463976948226 -0.01187639492512313 -0.008845025421051044 0.0004746417556368003 
0 0 0 0 0 0 
-0.004489430698491319 0.005880166753611686 0 0.0002815205393938676 0 -0.005296642002135988 
0 0 0 0 0 0 
-0.006554751528502729 -0.003114616184741626 0 -0.001405690683638539 -0.001385983045205862 0.00786897654315182 
0 0 0 0 0 0 
-0.001734762939202971 0.003380190391884963 0.004973874295659528 0.002924128011738033 -0.006576338154301651 -0.002396527541968573 
0 0 0 0 0 0 
-0.0109080038776759 -0.01088132910917142 0.001376769992047169 0.002144317792964483 0.01731079115626749 -0.002184010455212196 
-8.635366408457911e-05 -0.001227638858435208 0.002034288674029896 -8.549798413804052e-05 -0.003051163128226289 -0.0006396061626757354 
-3.980570837013958e-05 0.0006966291948948879 0 -2.577652972364589e-05 0 -0.0006885447299929923 
0 0 0 0 0 0 
-0.004922829400656563 0.000397761268138352 0.0001294962845345482 -0.000522954107372313 -0.0002975908932492331 0.004691401925389322 
0 0 0 0 0 0 
-0.0001633511500971673 0.00119561249743686 -0.0001514705586226765 -0.0001054352616529381 -0.0002189662418567673 -0.0006885447299929923 
0 0 0 0 0 0 
0.01087211599918597 -0.01890678600625693 0.01480330331803221 -0.01059477787989663 -0.0006284000961665385 0.00669089240233407 
0 0 0 0 0 0 
-0.0001506050937045238 -0.0001621232406206154 0.000741377140297014 -0.0001773940683293194 0 -0.0001976055993465425 
0 0 0 0 0 0 
2.032879073410321e-20 0.00125105622879272 0 -0.001588415006087659 -2.71341764772653e-05 -3.049318610115481e-20 
0 0 0 0 0 0 
-0.007359200747771476 0.02879885398336988 -0.01670215055425215 0.02139871887891863 -0.02042687416009434 -0.01485941860545242 
-0.0006145533046204398 0.004028672525313371 0.0006075442091788253 -0.001343462682684367 -0.00324102650549822 -0.001231195162821446 
0.002498566959464706 -0.0008562400305056142 0.0005073823932284164 -0.00707732603008934 -6.776263578034403e-21 -0.002631066806927524 
0 0 0 0 0 0 
0 0 0 0 0 0 
0 0 0 0 0 0 
-0.002408761407610277 0 0 0 0 0.001607734351269918 
0 0 0 0 0 0 
0 0 0 0 0 0 
0 0 0 0 0 0 
0.0002635915960821864 -0.004375877470476206 0.002379951282929986 -0.001982416906637411 -0.0002749427288035986 0.001069280239089762 
0 0 0 0 0 0 
0 0 0 0 0 0 
0 0 0 0 0 0 
-0.001458484329821385 -0.0005897194417347105 6.776263578034403e-21 -0.0003083967213047146 -0.0001385983045205863 0.002057580819312347 
0 0 0 0 0 0 
0 0 0 0 0 0 
0 0 0 0 0 0 
0.006246417398661773 0.0002331694102311556 -0.00135626440595336 -0.001531148861965743 2.303929616531697e-19 -0.003706712303600068 
0 0 0 0 0 0 
0 0 0 0 0 0 
0 0 0 0 0 0 
-0.01320328496592932 9.543466828878116e-05 -0.003548132911492083 -5.759824041329242e-20 -1.01643953670516e-20 0.008905063646899481 
0 0 0 0 0 0 
0 0.0009979666050839444 -0.000302941117245353 -0.0001593174638585845 -0.0004379324837135345 0 
0 0 0 0 0 0 
0.02403010667752626 -0.02939929561403551 0.008413147917730008 -0.02584230648683329 -0.001957860446254068 0.0138438027617142 
0 0 0 0 0 0 
0 0 0 0 0 0 
0 0 0 0 0 0 
0.002030166709403253 0.01552869464863727 -0.03050384538350917 0.004273152804948123 -0.0003758024240833324 -0.01173176642677023 
0 0 0 0 0 0 
0 0 0 0 0 0 
0 0 0 0 0 0 
-0.005085703313952602 -0.001077261927116376 -0.007446382428629139 0.0007492144564214793 0.01534997673168603 -0.0005719126537545898 
0 0 0 0 0 0 
0 0 0 0 0 0 
0 0 0 0 0 0 
-0.01755153978372208 -0.00240621237618841 0.007613546692129403 -0.0002424244926250302 -0.0003454630882986236 0.008644183462103997 
0 0 0 0 0 0 
0 0 0 0 0 0 
0 0 0 0 0 0 
0 0 0 0 0 0 
0 0 0 0 0 0 
0 0 0 0 0 0 
0 0 0 0 0 0 
0 0 0 0 0 0 
0 0 0 0 0 0 
0 0 0 0 0 0 
0 0 0 0 0 0 
0 0 0 0 0 0 
0 0 0 0 0 0 
0 0 0 0 0 0 
0 0 0 0 0 0 
-0.004922829400656563 5.082197683525802e-21 0 -0.0002105618091618661 0 0.004691401925389322 
-3.388131789017201e-21 -2.117582368135751e-21 0.0002547910668101768 0 0 0 
0 0 0 0 0 0 
0 0 0 0 0 0 
0 0 0 0 0 0 
0 0 0 0 0 0 
0 0 0 0 0 0 
0 0 0 0 0 0 
0 0 0 0 0 0 
0 0 0 0 0 0 
0 0 0 0 0 0 
0 0 0 0 0 0 
0 0 0 0 0 0 
0 0 0 0 0 0 
0 0 0 0 0 0 
0 0 0 0 0 0 
0 0 0 0 0 0 
0 0 0 0 0 0 
0 0 0 0 0 0 
0 0 0 0 0 0 
0 0 0 0 0 0 
0 0 0 0 0 0 
0 0 0 0 0 0 
0 0 0 0 0 0 
-0.005145982488986887 -8.670539784513401e-05 2.202285662861181e-20 -0.001382603304816335 -0.0007312729433893849 0.006421821539847469 
0 0 0 0 0 0 
0 0 0 0 0 0 
0 0 0 0 0 0 
0 0 0 0 0 0 
0 0 0 0 0 0 
0 0 0 0 0 0 
0 0 0 0 0 0 
0 0 0 0 0 0 
0 0 0 0 0 0 
0 0 0 0 0 0 
0 0 0 0 0 0 
-0.002651125186276014 0.002161260099019291 -8.131516293641283e-20 -0.0008061575447171867 0 0 
0 0 0 0 0 0 
0 0 0 0 0 0 
0 0 0 0 0 0 
-0.01437751792978878 -0.00327347643376075 -0.01527733420602341 -0.006509161075312631 0.01182096564112216 0.01000292833358686 
0 0 0 0 0 0 
0 0 0 0 0 0 
0 0 0 0 0 0 
0 0 0 0 0 0 
0 0 0 0 0 0 
0 0 0 0 0 0 
0 0 0 0 0 0 
0 0 0 0 0 0 
0 0 0 0 0 0 
0 0 0 0 0 0 
0 0 0 0 0 0 
0 0 0 0 0 0 
0 0 0 0 0 0 
0 0 0 0 0 0 
0 0 0 0 0 0 
0 0 0 0 0 0 
0 0 0 0 0 0 
0 0 0 0 0 0 
0 0 0 0 0 0 
0 0 0 0 0 0 
0 0 0 0 0 0 
0 0 0 0 0 0 
3.05990652195616e-20 -0.0006305941553607731 0.0006713988554692078 -3.938402489223662e-05 -0.0006801300505798948 -0.0001463787055625403 
0 0 0 0 0 0 
0 0 0 0 0 0 
0 0 0 0 0 0 
0 0 0 0 0 0 
0 0 0 0 0 0 
0 0 0 0 0 0 
0 0 0 0 0 0 
0 0 0 0 0 0 
0 0 0 0 0 0 
0 0 0 0 0 0 
0 0 0 0 0 0 
0 0 0 0 0 0 
0 0 0 0 0 0 
0 0 0 0 0 0 
0 0 0 0 0 0 
0 0 0 0 0 0 
0 0 0 0 0 0 
0 0 0 0 0 0 
0 0 0 0 0 0 
0 0 0 0 0 0 
0 0 0 0 0 0 
0 0 0 0 0 0 
0.001392510200582662 -0.0001951287229128907 0 -0.0001497955812824156 0 -0.0006924334883009243 
0 0 0 0 0 0 
0 0 0 0 0 0 
0 0 0 0 0 0 
0 0 0 0 0 0 
0 0 0 0 0 0 
0 0 0 0 0 0 
0 0 0 0 0 0 
0 0 0 0 0 0 
0 0 0 0 0 0 
0 0 0 0 0 0 
0 0 0 0 0 0 
0 0 0 0 0 0 
0 0 0 0 0 0 
0 0 0 0 0 0 
0 0 0 0 0 0 
0 0 0 0 0 0 
0 0 0 0 0 0 
0 0 0 0 0 0 
0 0 0 0 0 0 
0 0 0 0 0 0 
0 0 0 0 0 0 
0 0 0.003680198050689163 -0.002134471278820061 5.421010862427522e-20 0 
0 0 0 0 0 2.710505431213761e-20 
0 0 0 0 0 0 
0 -6.776263578034403e-21 2.710505431213761e-20 3.345780141654486e-20 -3.388131789017201e-21 0 
0 0 0 0 0 0 
0 0 0 0 0 0 
0 0 0 0 0 0 
-0.001337105801371052 -0.0001394810862848673 0 0 -0.0005462518889432178 0.00161995324740684 
0 0 0 0 0 0 
0 0 0 0 0 0 
0 0 0 0 0 0 
0 0 0 0 0 0 
0 0 0 0 0 0 
0 0 0 0 0 0 
0 0 0 0 0 0 
0 0 0 0 0 0 
0 0 0 0 0 0 
0 0 0 0 0 0 
0 0 0 0 0 0 
0 0 0 0 0 0 
0 0 0 0 0 0 
0 0 0 0 0 0 
0 0 0 0 0 0 
3.05990652195616e-20 -0.0006305941553607731 0.0006713988554692078 -3.938402489223662e-05 -0.0006801300505798948 -0.0001463787055625403 
0 0 0 0 0 0 
0 0 0 0 0 0 
0 0 0 0 0 0 
0 0 0 0 0 0 
0 0 0 0 0 0 
0 0 0 0 0 0 
0 0 0 0 0 0 
0 0 0 0 0 0 
0 2.846030702774449e-19 0.001646877132129363 -0.002716599809407352 2.710505431213761e-20 0 
-0.002203486642621476 0.001614833561473751 -0.0005234619917623708 -0.00116425706117458 -2.710505431213761e-20 -0.0002841850640547866 
0 0 0 0 0 0 
0 9.99828843799203e-05 0.0003345634591535607 -0.0005025044611212983 -4.235164736271502e-20 -0.0004005981185348546 
0 0 0 0 0 0 
0 0 0 0 0 0 
0 0 0 0 0 0 
0 0 0 0 0 0 
0 0 0 0 0 0 
0 0 0 0 0 0 
0 0 0 0 0 0 
0 0 0 0 0 0 
0 0 0 0 0 0 
0 0 0 0 0 0 
0.0001214875564136162 0.001793741560649742 0.004266608054060357 -0.0006919287670134903 -0.005454707900463717 -0.003096645623385029 
0.001056442852456512 -0.0001408915984017608 0 -0.0008581387444500042 -7.888128720987937e-05 -0.0005713109926615448 
0 0 0 0 0 0 
-0.002031055919162347 0.001614833561473751 -0.002024674197346988 0 0 -0.0001420925320273936 
0 0 0 0 0 0 
-0.001154379192762315 0.0006536656013182393 0.001166648746431054 -0.001741368261625986 0 -0.001569865424446714 
0 0 0 0 0 0 
0 0 0 0 0 0 
0 0 0 0 0 0 
-0.0006370870223849342 0.0004536998325583979 -0.0001716050901831867 -0.0003482736523251976 1.18584612615602e-20 -0.0003423915912948215 
0 0 0 0 0 0 
0 0 0 0 0 0 
0 0 0 0 0 0 
0 0 0 0 0 0 
0 0 0 0 0 0 
0 0 0 0 0 0 
-0.000212127735506833 0.001330176126163887 -0.0006082798439608656 0.0008643173964920312 -0.001363676975115929 -1.196013715671957e-05 
-0.04940097074921 -0.008981220702273274 -0.02438179205305749 -0.01086410990524565 -0.01290860066079697 -0.003408917610862212 
0.02084100825981806 -0.01331751070246477 -0.008800388954805699 0.002541339126523581 0.01728007018325841 -0.006347403066680911 
0.016002433574671 -0.02699311459925782 -0.001038157496918236 0.003812724992554113 0.002471467702559452 0.02065664961569003 
0.002813168054756786 0.003111006582492621 0.004904089690955998 -0.004634921301551132 -0.007109966919288617 0.008569443206833838 
-0.02060780410639796 0.01161138008174041 0.003877206619563827 -0.004214935181814848 -0.0006518487628172487 0.00372088770649903 
0.001331828055545569 -0.002168013143883347 -0.005546327655121923 0.01720527837291925 0.0004679458776768728 -0.007567525343000286 
0.005813740424874277 -0.01070778449301954 0.007131571514029414 -0.004449464632123079 -0.01632865678700652 -0.02172098293440335 
-0.01399100797422019 -0.0107074541065236 0.008650764551745151 -0.01466990851345419 -0.01542898676824453 0.04149470530794498 
0.005522347379147445 -0.001626943206150837 0.002245832599333959 0.003781875204421692 -0.003350418407510666 -0.01055168019679031 
-0.0009238764501951572 0.005226044619234468 -0.0007465079226524371 -0.0002839889674362946 -0.006758932849272861 0.004240012284154396 
-0.007967791601229363 -0.0008734810093588336 0.003691347914017288 -0.01123372837420667 -0.008426914169200111 0.0002404552359107555 
-0.007629217640167755 -0.006458494086021871 0.006431864403560952 0.002933440254561839 -0.004653351221960715 -0.00132026057045976 
-0.01494164010675688 -0.001512218967538942 0.003102376241178276 0.001729547715576242 -0.005474303337757405 0.008128188686245185 
-0.008365473613935472 -0.006511701451608769 -0.004270141905036105 0.01970341763975045 -0.005128384910287678 0.004887677082535899 
5.629615311098614e-05 0.02112863126351667 -0.003707145190429889 -0.0003406372042014157 -0.004704911665376138 -0.005950455786038483 
0.001039682785486281 -0.004349503373094521 0.00258749892040711 0.0269132185320273 -0.02479956970762684 -0.01950385607815807 
-0.0005002695233603724 0.004292378856903993 -0.006678384807194469 0.02025588652686959 -0.002358271093498862 -0.006132382234275776 
0.007876537500022308 -0.0006797800399958943 -0.002363111696954205 0.00622110541980403 -0.005431640531847358 -0.002618286138084538 
0.002985830624962124 0.004779031961501153 -0.009595195065846216 0.0101554018549363 -0.003175678396428199 -0.000818365998497482 
-0.01851432249401261 0.02953395159037386 -0.001028393213518593 -0.01676847761196416 -0.001527641480738761 -0.005769513358590381 
-0.01296780762432216 0.003267040345483925 -0.008669833729791682 0.02216131891418106 -0.0007023595406574917 -7.479686527026957e-05 
-0.01244194395880971 0.006549083531610277 -0.007622468546011235 0.01420718404926898 -0.002632370179078856 0.001903279445012157 
-0.020332173082881 0.02981283381656755 -0.01183890130669152 0.007707491031251536 0.01677167435708065 -0.01360951783731134 
-0.0698605075432716 0.02633295501802293 0.00130867783987281 -0.001867699498689527 0.006403024685555932 0.02662119457260862 
-0.05301693667559135 0.03553221965777398 0.01436294482312309 -0.02362261387294948 -0.007098071335995685 0.02678141309576253 
-0.02701221748824322 0.00619038569595272 0.01346990260804564 -0.005304569874039492 -0.001787450553049168 0.01454936524783553 
-0.007140476299287689 -0.003491871077938171 0.00688944633115464 -0.009000502631346744 -0.001806382707477272 0.003234101279174118 
-0.01265557419609346 -0.007348334827283236 0.03643671923985187 -0.01849404871276221 -0.006090625848184429 0.004178603098079755 
-0.008842041848114523 -0.00893169718660782 0.01233904790931435 0.004930510327525508 -0.0055489605535421 -0.003560408950436424 
-0.01158423765516775 -0.001644019475303446 0.006282982026055432 0.0009301519941369187 -0.0003630703447692364 0.004759090457992584 
-0.02740501227062355 -0.005779774184558577 0.01313188873978001 0.0003345541737676159 -0.006485994947663866 0.01293994712743843 
-0.01633793903832877 -0.007284978948609112 -0.004845759443061727 0.003286190514066939 -0.004306101672578324 0.02878257854277968 
-0.01530734336720903 -0.006696594695691308 0.01092734713091742 0.02889297083468616 -0.009760515704360748 -0.01868098307821519 
-0.004489360158729108 -0.002692179703035778 -0.001714407734604747 0.005338424425090575 -0.003332838880305365 0.00438070966283358 
0.001769469232046083 -0.007065376208845889 -0.005583444360811347 0.01687478360746855 -0.001684121503532572 0.001299613841372478 
0.006336382269504405 -0.008744296045254557 -0.007908690443329631 0.013617627616329 -0.002876067849511849 0.003042106779711127 
-0.07438618264116588 0.01071724807040485 0.09643841144794109 -0.0005791671187381457 -0.02328026951110987 -0.00541090612568936 
-0.01034074799939304 0.003651416143790215 -0.0006105797419852163 -0.001075042863937364 0.002060079919329812 0.001988800603004531 
0 0 0 0 0 0 
-0.002458103928757324 0 -0.0006105797419852164 0 0.002943067538796899 -0.002017646912038171 
-0.04473439476714994 0.009168071596279161 -0.0004236658964037719 -0.008130443270838403 0.0008641411197828512 0.0158027763854223 
0 0 0 0 0 0 
-0.004597230051026705 0.006305269181444219 0 1.084202172485504e-19 0 -0.00554665834953138 
0 0 0 0 0 0 
0 9.640439156311228e-05 0.01165344482382179 -0.005855278501661051 -0.005830564737221855 -9.54587860083275e-05 
0 0 0 0 0 0 
0 0 0 0 0 0 
0 0 0 0 0 0 
0 -0.0003147156725034319 -0.001070375875624683 0.0006591030834139026 0 0 
0 0 0 0 0 0 
-0.009917835037912749 -0.005678980618399545 0 -8.905340878574441e-05 -0.005040999469746518 0.02422459260087601 
0 0 0 0 0 0 
0.008012396875907577 -0.006593673101666061 0.002414915643897233 -0.008377057633491695 -0.0008598110808343997 0.004016447315098168 
-0.0005158107079780513 0.0006412704801659117 -0.0002011885969302489 -0.0006505351608434184 -0.000935413346284611 0.001380290989077152 
0 0 0 0 0 0 
0 0 0 0 0 0 
0 0 0 0 0 0 
0 0 0 0 0 0 
-0.002089650023193957 0.003476121479157209 0 -0.0003105905847672617 0 -0.002521208340696083 
0 0 0 0 0 0 
-0.003405022126549878 -0.01020556876056131 0 0 2.710505431213761e-20 0.01555808456963527 
0 0 0 0 0 0 
0 0 0 0 0 0 
0 0 0 0 0 0 
-0.006195204188239816 -0.003095664342681791 -0.0002140751751249365 -0.0008203413861701995 -0.001292435853794018 0.007925387111974378 
0 0 0 0 0 0 
0 0.000318695052127597 0 -0.0004259490952086865 0 -0.000190917572016655 
0 0 0 0 0 0 
-0.01817233156375261 -0.006871166103353265 0.008342884252382375 -0.004146783830567215 -0.009831345792089835 0.0128757404619335 
0 0 0 0 0 0 
0 0 0 0 0 0 
0 0 0 0 0 0 
0 0 0 0 0 0 
0 0 0 0 0 0 
0 0 0 0 0 0 
0 0 0 0 0 0 
-0.009104270831664809 -0.001756224679332723 0.004616193261825867 -0.002881716100576577 -0.004476038549172805 0.01001563874831003 
0 0 0 0 0 0 
0 0 0 0 0 0 
0 0 0 0 0 0 
0 0 0 0 0 0 
0 0 0 0 0 0 
0 0 0 0 0 0 
0 0 0 0 0 0 
-0.008954750000913354 -0.005626525222660582 0.001391933429654797 0.003514727062373511 -0.001610204074697385 0.00522982888003762 
0 0 0 0 0 0 
0 0 0 0 0 0 
0 0 0 0 0 0 
-0.002916269298381509 0.001323745938091996 0 -0.0003447645155264648 -1.524659305057741e-20 0.001045965776007525 
0 0 0 0 0 0 
0 0 0 0 0 0 
0 0 0 0 0 0 
0.03681151456101885 -0.01758433593191193 0.00135685561965964 0.01013092447223482 -0.002404811553944257 -0.02564168871667941 
-0.0004319645609720642 -0.0007916968395707034 0 0.002065356164394476 0 1.355252715606881e-20 
0 0 0 0 0 0 
0 0 0 0 0 0 
0.01918708929430913 0.0008620023082980566 -0.01448394220907983 -0.004660445297497538 0.00195910785818036 -0.0223342551067231 
0 0 0 0 0 0 
0 0 0 0 0 0 
0 0 0 0 0 0 
2.032879073410321e-20 -0.00158522717273538 -0.005997026376129476 0.009033076947441107 0 0 
0 0 0 0 0 0 
0 0 0 0 0 0 
0 0 0 0 0 0 
-0.009883602842975459 0.0013568440659063 0.004707102352435845 -0.007734804483372587 -0.0005847024763577466 -0.001487672423511299 
0 0 0 0 0 0 
0 0 0 0 0 0 
0 0 0 0 0 0 
0 0 0 0 0 0 
0 0 0 0 0 0 
0 0 0 0 0 0 
0 0 0 0 0 0 
0 4.868391474665226e-05 0 -7.647451897499433e-06 0 -3.388131789017201e-21 
0 0 0 0 0 0 
0 0 0 0 0 0 
0 0 0 0 0 0 
0 0 0 0 0 0 
0 0 0 0 0 0 
0 0 0 0 0 0 
0 0 0 0 0 0 
0.0007565946094032826 -0.0007506968010688359 0.002835780385962446 -0.0008026955589803614 -6.776263578034403e-21 -0.001412353386461995 
-0.0002891719103532167 0.000499135829403574 0 -0.00014928220984329 0 -0.0003372619983946386 
0 0 0 0 0 0 
0 0 0 0 0 0 
0 0 0 0 0 0 
0 0 0 0 0 0 
0 0 0 0 0 0 
0 0 0 0 0 0 
0 0 0 0 0 0 
0 0 0 0 0 0 
0 0 0 0 0 0 
0 0 0 0 0 0 
0 -0.0001001399055552741 -0.0004168933269081155 0.000445930047955801 0 0 
0 0 0 0 0 0 
0 0 0 0 0 0 
0 0 0 0 0 0 
0 0 0 0 0 0 
0 0 0 0 0 0 
0 0 0 0 0 0 
0 0 0 0 0 0 
0 0 0 0 0 0 
0 0 0 0 0 0 
0 0 0 0 0 0 
0 0 0 0 0 0 
0.001512910532753854 -6.568098135973009e-05 0.0129477005966551 -0.007899999806338967 -0.009386630037554614 0.0001109020701609472 
0 0 0 0 0 0 
0 0 0 0 0 0 
0 0 0 0 0 0 
0 0 0 0 0 0 
0 0 0 0 0 0 
0 0 0 0 0 0 
0 0 0 0 0 0 
0 0 0 0 0 0 
0 0 0 0 0 0 
0 0 0 0 0 0 
0 0 0 0 0 0 
0 0 0 0 0 0 
0 0 0 0 0 0 
0 0 0 0 0 0 
0 0 0 0 0 0 
-0.01601338433435539 0.0206424864754381 -0.01501366716664346 -0.006018037021370784 0.005126279086121632 0.02205846118431424 
0 0 0 0 0 0 
0 0 0 0 0 0 
0 0 0 0 0 0 
-0.004807346756228408 0.00440358791808877 0 -0.001441987841884082 0 -1.084202172485504e-19 
-0.005680491295692558 0.004595599826097941 0 -0.001746428136911101 0 3.252606517456513e-19 
-0.0001214751396214841 -0.0006771755854049982 0.0003201428993692253 -0.0001624394634211273 -0.0005731610179762762 0.001177164019639485 
-0.0126051082229477 0.005914947317615188 -0.0008141063226469546 -0.00134463853569973 0.003924090051729199 -0.002840334962594379 
0 0 0 0 0 0 
0 0 0 0 0 0 
0 0 0 0 0 0 
0 0.00104334040556278 0 -0.00321885561909067 0 -0.004180317521863585 
0 0 0 0 0 0 
0 0 0 0 0 0 
0 0 0 0 0 0 
0 0 0 0 0 0 
0 0 0 0 0 0 
0 0 0 0 0 0 
0 0 0 0 0 0 
0 0 0 0 0 0 
0 0 0 0 0 0 
0 0 0 0 0 0 
-1.238453552456839e-05 -1.497720521491622e-05 0 0 0 0.0002766735296469097 
-0.001415373490281992 0.0008533277688912738 0 -9.195693415640682e-05 1.01643953670516e-20 0.0006204414308939326 
0 0 0 0 0 0 
0 0 0 0 0 0 
0 0 0 0 0 0 
0 0 0 0 0 0 
0 0 0 0 0 0 
0 0 0 0 0 0 
0 0 0 0 0 0 
0 0 0 0 0 0 
0 0 0 0 0 0 
0 0 0 0 0 0 
0 0 0 0 0 0 
0 0 0 0 0 0 
0 0 0 0 0 0 
0 0 0 0 0 0 
0 0 0 0 0 0 
0 0 0 0 0 0 
0 0 0 0 0 0 
0 0 0 0 0 0 
0 0 0 0 0 0 
0 0 0 0 0 0 
0 0 0 0 0 0 
0 0 0 0 0 0 
-0.0001242674511600371 -0.0009624327195292907 -0.0002670894954884645 0.0005846086258324757 -0.0001633884248669413 0.0008847553380778586 
0 0 0 0 0 0 
0 0 0 0 0 0 
0 0 0 0 0 0 
0 0 0 0 0 0 
0 0 0 0 0 0 
0 0 0 0 0 0 
0 0 0 0 0 0 
0 0 0 0 0 0 
0 0 0 0 0 0 
0 0 0 0 0 0 
0 0 0 0 0 0 
0 0 0 0 0 0 
0 0 0 0 0 0 
0 0 0 0 0 0 
0 0 0 0 0 0 
0 -0.0002054537723500721 0 0.0004670701273652678 0 -3.917527381051139e-21 
-7.624319462836241e-05 -0.001712544178280314 -3.110948611710313e-07 -0.0003373258864144404 -4.317370717489545e-05 0.001479652200584272 
0 0 0 0 0 0 
0 0 0 0 0 0 
0 0 0 0 0 0 
0 0 0 0 0 0 
0 -0.0003754506306216797 -0.0008700795348399735 0.002007882606335561 0 0 
0 0.0006609950860056533 0 -0.001320211723873276 0 0 
0 0 0 0 0 0 
-0.0001056048848821467 0.0004083856172736853 -1.084202172485504e-19 -0.001937372842585868 -0.0001320228080480846 -0.000467502753117945 
0 0 0 0 0 0 
0 0 0 0 0 0 
-0.001204280636900756 -0.0003497414236976061 0.0001264900094277005 -0.0002121098177732189 -7.439008058148561e-05 0.001404230217679075 
0.001480601457250959 0.006122740244335854 8.944667923005412e-19 -0.004672776623194787 -0.0009192993276291436 -0.004869527384312864 
0 0 0 0 0 0 
0 0 0 0 0 0 
0 0 0 0 0 0 
0 0 0 0 0 0 
0 0 0 0 0 0 
0 0 0 0 0 0 
0 0 0 0 0 0 
0 0 0 0 0 0 
0 0 0 0 0 0 
0 0 0 0 0 0 
0 0 0 0 0 0 
0 0 0 0 0 0 
0 0 0 0 0 0 
0 0 0 0 0 0 
-0.001022104076574257 0.0004426963484069751 -6.776263578034403e-21 -0.0004210612495250751 -1.509027292002897e-05 0.0004326798458545337 
0.004637577823280228 -0.000892743333111545 -0.0002035265806617387 -0.003594069445238605 0.0001888856646437919 -0.002857124058493131 
0 0 0 0 0 0 
0 0 0 0 0 0 
0 0 0 0 0 0 
0 0 0 0 0 0 
0 0 0 0 0 0 
0 0 0 0 0 0 
0 0 0 0 0 0 
0 0 0 0 0 0 
0.008771468342943487 -0.002779059256172657 -0.004658412358036755 0.007137275548361725 -5.242339776685596e-05 -0.008202327192935297 
-0.009210951100092995 -0.0006758703472875002 -0.002120759515564321 0.003345672750202964 -0.0002096935910674236 0.00853837219010955 
0 0 0 0 0 0 
-0.001045037975260189 0.002027699977919635 0 -0.003875997121323111 5.421010862427522e-20 0 
0 0 0 0 0 0 
0 0 0 0 0 0 
0 0 0 0 0 0 
-0.004715678247042832 0.005669239124737494 0 6.098637220230962e-20 6.776263578034403e-20 2.710505431213761e-20 
0 0 0 0 0 0 
0 0 0 0 0 0 
0 0 0 0 0 0 
0 0 0 0 0 0 
0 0 0 0 0 0 
0 0 0 0 0 0 
-0.007367478792757882 -0.003068103475232708 0.0002998324809766455 -0.0008515109243369747 -0.003222412781309751 0.01515179767485608 
0.001394013819265158 -0.0006311973345916172 0 -0.0002275630004193087 -0.0002543249586812718 0.0007332004264106322 
0 0 0 0 0 0 
-0.0005144379618778636 -0.0022574430968331 -0.003407732377312409 0.005782488067475904 -0.0002096935910674236 0.0004822960711242624 
0 0 0 0 0 0 
-0.002374847982107477 0.0001842741262807817 -0.0008519330943281023 0.0004898656399099589 -0.0003929288713171201 0.002692617128927667 
0 0 0 0 0 0 
0.001845701019661124 -0.0002211964426737298 0 0 0 -0.001722820040077113 
0 0 0 0 0 0 
-0.007660546942928592 0.006272783279488041 -0.0008519330943281022 -0.0002526660638005418 -0.00039292887131712 0.002692617128927668 
0 0 0 0 0 0 
0 0 0 0 0 0 
0 0 0 0 0 0 
0 0 0 0 0 0 
0 0 0 0 0 0 
0 0 0 0 0 0 
-0.0007083254713522317 -0.0002513763027982945 -6.776263578034403e-21 0.0005723805593576116 -1.509027292002895e-05 0.0004656049595362971 
0.03880935884499922 -0.01357321163506141 -0.06495838611051552 -0.01093410680591946 0.01078138714115731 -0.03401683051595118 
-0.000356303356602358 -0.01509219584032477 0.007470047970637938 -0.01439117758505266 0.01094727743044819 0.004438639497047511 
-0.0053558886022904 -0.009094212041152067 0.01704877723387129 -0.006218351497279013 -0.006711357777677079 0.01463475677190752 
-0.01254530137821782 0.02365726707401978 0.01747703138181686 -0.02515368716047461 -0.01235452132347348 0.0098493340611605 
0.01361810809429628 -0.008581516171673293 -0.004599642211893209 0.02851706515696919 -0.003550509402697806 0.001842996353042622 
-0.01647963911640109 -0.001819728884924221 -0.01485033659980761 0.03464595994970419 -0.003245821700273115 0.001741015963012357 
-0.01579639024228047 -0.01033258860082745 -0.007552145640468631 0.007676945732226822 -0.01338534154476491 -0.003201106663375271 
-0.009207438666687726 -0.001801398925212991 -0.01732170035010284 0.00115702375268963 -0.003551404106442339 0.03127351064972614 
-0.02410818286160297 -0.01214663780430934 -0.00719566300308405 0.02473860849617413 -1.910261053170884e-05 0.01006500057916222 
-0.00503537300864017 0.00226159072306378 0.00685673443095268 -0.0007532295956947283 -0.002782728330012673 -0.003945728386794072 
-0.02277464566269054 0.01278870542543034 0.005581725164251106 0.0009583653860811235 -0.0006530447760197588 -0.005534701622193408 
-0.03000361057657204 -0.0129624883431002 0.0148545559762402 0.0145679677211753 -0.002247380607801254 0.01132641735100854 
-0.009649271523217429 -0.005328798127056309 0.007152997903504832 0.005626315090090884 -0.005256521259623255 0.005261913754783232 
-0.01881785198913151 -0.002023957316770328 0.01969890864275592 0.001065949623950704 -0.005091282918350584 0.009247175963261944 
0.0009517567419442735 0.003280782949408195 -0.002041669177058558 -0.001908134668694681 0.0003589993666293029 8.866084279118438e-05 
-0.05024708621737652 0.001772378145495951 0.00161317668570689 0.007270320748170576 0.003162436438886274 0.009430509763187893 
-0.007826450176472967 -0.005085269479710427 -0.002375971546071169 0.002026969200867087 0.003205037515091283 0.004436972672922044 
-0.0004213576295114267 0.01244762823467054 -0.001724424307097418 -0.007784943768807636 0.004836911587790659 -0.008887903582859532 
0.0002371071374803749 3.634590401052759e-05 0.001081429613587699 -0.005981750434408298 -0.001701917456788887 0.003275962441541627 
0.01531328383779293 0.001886826027119565 -0.001136067507541897 -0.005212010528405735 -0.003702001681591127 -0.008463382151805355 
0.001516697330283294 -0.005359430411820272 -0.006126782952581439 0.01255542682008132 0.004367519829086628 0.002058671132412687 
0.001417492893944883 -0.003653952092164934 -0.007125952895535853 0.007282405333882734 -0.002413652455079869 0.001105514410828864 
0.00204172535803065 0.01632234173344252 -0.005384449993986804 0.00529668342636728 0.001378519964224901 -0.01504713487421198 
-0.03458791576261116 -0.003983818130205758 -0.008286287127558162 -0.007222896853784233 0.02502644779576603 0.01346726250830242 
-0.01916341905965805 0.0134058974065278 -0.003700432084918308 0.004797772234029189 -0.009341398832371605 0.003930211516452244 
-0.01036545443757276 -0.001761391354216493 0.004235914363501698 -0.005052421411083228 -0.0040318712144975 0.009555604070906545 
-0.0258009164104596 0.01177858268429254 -0.009391956821153369 -0.01252257860721352 -0.002407412855528149 0.02023807437215311 
-0.01491075334115668 0.003137521100412539 0.004532971957967069 0.005318525547519413 -0.006476829829364456 0.008056553503455091 
-0.00965233963097189 0.00188730359510202 -0.003807696947136243 0.01229511015784279 -0.004745361605038565 0.001380858626227859 
-0.006459450466545618 -0.004573114010233042 0.009971680593376423 0.008093115185159207 -0.006488947421705843 -0.004579640695183863 
-0.01340141306461989 -0.005066583809701264 -0.004390739074562604 0.02620167389400683 0.0002742407045992058 0.000181482058572983 
-0.01182883987977599 -0.005777553381158845 -0.003281650552779911 0.007243480509993685 0.002178606550664308 0.001986180279421241 
-0.01072104723335365 0.007908305721328081 -0.02021666798449832 0.03414136683314675 -0.008451849572036853 -0.007097160183289312 
-0.0185595347534653 -0.006286013850813503 -0.001935765810762746 0.009030274244488727 -0.001928586704725897 0.01577218822318639 
-0.01343244372298964 -0.005781284296067579 -0.001967589515454687 0.01374757104637463 -0.003349575490387384 0.009724646549131825 
0.001702210545865924 -0.02247559028230804 -0.003365650799428999 0.01255990158062769 -0.002001243284856177 0.00504243826971605 
-0.01945913153066138 0.001234998293932664 -0.00204577057427707 0.04456537800047228 -0.005045660258274919 -0.01108483533243467 
0.003994472326205731 -0.002247140981151842 0 -0.005865319670159692 -0.0005729516606320288 -0.0001403394381000402 
-0.005842429499296248 0.005000538489269369 1.084202172485504e-19 -1.355252715606881e-19 0 -0.001914871583273035 
-0.007022020115563112 0 0 -0.0002243561019871314 0 0.007365630720988699 
-0.04035698814228988 0.005517850361499307 0.01594809805142297 -0.006307297915047648 -0.01998478969399691 0.02178767891982251 
0 0 0 0 0 0 
-0.01165243150846395 0.008694038539410507 0 0 -5.421010862427522e-20 -0.00312748860217979 
0 0 0.007245118682816905 -0.004202083020292727 -2.710505431213761e-20 0 
0.006185063532189905 -0.003809199014619177 -0.001404018168640916 -0.00348246742890913 0.008878626771177022 -0.01161411891906259 
0 0 0 0 0 0 
0 0 0 0 0 0 
0 0 0 0 0 0 
-0.01797341587923071 -0.01074683495965337 0.01810549452391313 -0.0032863216873859 -0.001106706164079312 0.01584946706476745 
0 0 0 0 0 0 
1.694065894508601e-21 0.0001952201389845541 -4.023406499457927e-21 -0.0001889276121450297 -1.479409246173262e-05 -1.694065894508601e-21 
0 0 0 0 0 0 
-0.009911388865972591 0.002803686000227948 0.02132432116808003 -0.009755425721510712 -0.004282777624101585 0.0002435931058925632 
0.002942227470042953 -0.0009546795986501126 0.001730277834219557 -0.002205122248626399 -0.00142463866070902 -0.0002496997211200106 
0 0 0 0 0 0 
0 0 0 0 0 0 
-0.0009197743347231063 0 0 -9.029457037885177e-05 -2.032879073410321e-20 0.0018800652920453 
0 0 0 0 0 0 
0 0 0 0 0 0 
0 0 0 0 0 0 
0.03735976346174799 -0.01190644863015729 -0.001329994452586402 -0.001999434466027903 -0.0005118456326072802 -0.01964475795151907 
0 0 0 0 0 0 
0 0 0 0 0 0 
0 0 0 0 0 0 
0.0001573727329874642 0.01235410452415585 -0.01269761956039786 0.001887569239270609 -0.002285935838272459 0.004292482846224622 
0 0 0 0 0 0 
-0.0005547321810797751 -0.0003277861676062488 0 0 4.235164736271502e-21 0.0004201598267929161 
0 0 0 0 0 0 
2.371692252312041e-20 -0.003218436619931887 0 0.002077570369499167 6.776263578034403e-21 0.0006829541998386954 
0 0 0 0 0 0 
0 0 0 0 0 0 
0 0 0 0 0 0 
-0.001649353837177748 -5.929209455815058e-05 -0.0002016576649185141 0.0001241743127518363 -2.529976101755083e-05 0.001830472132465567 
0 0 0 0 0 0 
0 0 0 0 0 0 
0 0 0 0 0 0 
-0.003556575484788978 -0.004056858818798709 -0.001188489107969324 -0.00243688119589849 0.007175682681830708 -0.006717700926581921 
0 0 0 0 0 0 
0 0 0 0 0 0 
0 0 0 0 0 0 
-0.002569051928054141 -0.001706887973476565 0.0003744074495576704 -0.001108064831239376 0 0.006889501546809105 
0 0 0 0 0 0 
0 0 0 0 0 0 
0 0 0 0 0 0 
-0.007760945898273464 -0.003662058194105404 0 -0.0008520050364420999 0.006911970127970945 -0.002478872958900398 
0 0 0 0 0 0 
0 0 0 0 0 0 
0 0 0 0 0 0 
-0.01168055390502327 -0.001286677704687055 0 0 0.0007732667897598234 0.0100243246759611 
0 0 0 0 0 0 
0 0 0 0 0 0 
0 0 0 0 0 0 
0.06280664869882042 -0.01141514651799226 -0.0002972192019636068 -0.007756900533751206 0.003072200753587814 -0.04371413019343673 
0.006899515348372669 -0.001638968947585685 -1.01643953670516e-20 -8.150173517280106e-05 0 -0.003299663555123632 
0 0 0 0 0 0 
0 0 0 0 0 0 
0.02519115897398011 0.01054619841610153 -0.03104562393182806 0.00212002635891283 -0.003309309657702019 -0.009039727991404038 
0 0 0 0 0 0 
0 -9.204559000726641e-05 -5.326677963389825e-05 1.626303258728257e-19 0 0 
0 0 0 0 0 0 
-4.065758146820642e-20 0.0007923005662765618 0 -0.001326356812335139 0 -0.0001496270664398151 
0 0 0 0 0 0 
0 0 0 0 0 0 
0 0 0 0 0 0 
-0.01303991348486764 -0.007579458674017293 0.01844253012005348 -0.004608241799676341 -0.007406737593235681 -0.0007536569289424953 
0 0 0 0 0 0 
0 0 0 0 0 0 
0 0 0 0 0 0 
0 0 0 0 0 0 
0 0 0 0 0 0 
0 0 0 0 0 0 
0 0 0 0 0 0 
1.084202172485504e-19 0 0 0 -0.001106706164079312 -6.776263578034403e-21 
0 0 0 0 0 0 
0 0 0 0 0 0 
0 0 0 0 0 0 
0 0 0 0 0 0 
0 0 0 0 0 0 
0 0 0 0 0 0 
0 0 0 0 0 0 
-0.0009560321856938301 0.001861531550741252 -0.0003466559056531933 -0.000405103155405366 0.001243583622133874 -0.0009961900278857628 
-0.0001158465980855754 0.0005203223815826572 0.0004709578013207976 -0.0003850867979213891 0 -0.0004744488141983543 
0 0 0 0 0 0 
0 0 0 0 0 0 
0 0 0 0 0 0 
0 0 0 0 0 0 
0 0 0 0 0 0 
0 0 0 0 0 0 
0 0 0 0 0 0 
0 0 0 0 0 0 
0 0 0 0 0 0 
0 0 0 0 0 0 
0 0 0 0 0 0 
0 0 0 0 0 0 
0 0 0 0 0 0 
0 0 0 0 0 0 
0 0 0 0 0 0 
0 0 0 0 0 0 
0 0 0 0 0 0 
0 0 0 0 0 0 
0 0 0 0 0 0 
0 0 0 0 0 0 
0 0 0 0 0 0 
0 0 0 0 0 0 
-0.006342130713763058 -0.00379206871486083 -0.0002594734254772296 -0.001101416558296339 -0.001848866434362617 0.01318206068803703 
0 0 0 0 0 0 
0 0 0 0 0 0 
0 0 0 0 0 0 
-0.002355764468280101 0 0 2.439454888092385e-19 0 0.003967431950501579 
0 0 0 0 0 0 
0 0 0 0 0 0 
0 0 0 0 0 0 
0 0 0 0 0 0 
0 0 0 0 0 0 
0 0 0 0 0 0 
0 0 0 0 0 0 
-0.0007204538738910015 0.0047627633401714 0 -0.002462934467643922 -0.0002943292064890285 0.000872856576809281 
0 0 0 0 0 0 
0 0 0 0 0 0 
0 0 0 0 0 0 
-0.0153876471134329 -0.01007372614692585 -0.01430507239727855 -0.003189581535220264 0.01237356500184715 0.01507319925524493 
0 0 0 0 0 0 
0 0 0 0 0 0 
0 0 0 0 0 0 
-0.01869733595955217 0.02383437396854812 0 -0.003512927282479328 -0.006652464421518927 0 
0.003897321820733194 -0.002557165141227882 0 -0.001710157560459952 -0.004639336688155977 0.00123936426996313 
-0.001614630345949813 0.001394152462803758 0 0.0003222122380138298 -1.694065894508601e-21 -0.0003342996078709534 
0.009521419585941588 0.003465696121836568 0.006852534034364532 -0.01271045714422905 -0.009515615081293911 -0.0003285405220941251 
0 0 0 0 0 0 
0 0 0 0 0 0 
0 0 0 0 0 0 
-2.120970499924768e-18 0.004184111732049913 0.00202427737918844 -0.01859233192688162 -0.006243910112196015 1.084202172485504e-19 
0 0 0 0 0 0 
0 0 0 0 0 0 
0 0 0 0 0 0 
0 0 0 0 0 0 
0 0 0 0 0 0 
0 0 0 0 0 0 
0 0 0 0 0 0 
0 0 0 0 0 0 
0 0 0 0 0 0 
0 0 0 0 0 0 
-0.000414313096899956 -0.000201157164640892 0 0 -7.572700792386422e-05 0.00089772321814859 
0.006688329994747887 -0.004699006707508465 0 -0.0006698145744520121 0 -0.0009542449780236119 
0 0 0 0 0 0 
0 0 0 0 0 0 
0 0 0 0 0 0 
0 0 0 0 0 0 
0 0 0 0 0 0 
0 0 0 0 0 0 
0 0 0 0 0 0 
0 0 0 0 0 0 
0 0 0 0 0 0 
0 0 0 0 0 0 
0 0 0 0 0 0 
0 0 0 0 0 0 
0 0 0 0 0 0 
0 0 0 0 0 0 
0 0 0 0 0 0 
0 0 0 0 0 0 
0 0 0 0 0 0 
0 0 0 0 0 0 
0 0 0 0 0 0 
0 0 0 0 0 0 
0 0 0 0 0 0 
0 0 0 0 0 0 
0.00279242744314809 0.0001597706118241522 -9.924873978174245e-05 -0.0005287950215508159 6.776263578034403e-21 -0.001020106934538582 
0 0 0 0 0 0 
0 0 0 0 0 0 
0 0 0 0 0 0 
0 0 0 0 0 0 
0 0 0 0 0 0 
0 0 0 0 0 0 
0 0 0 0 0 0 
0 0 0 0 0 0 
0 0 0 0 0 0 
0 0 0 0 0 0 
0 0 0 0 0 0 
0 0 0 0 0 0 
0 0 0 0 0 0 
0 0 0 0 0 0 
0 0 0 0 0 0 
-0.0006690111511317889 1.355252715606881e-20 -0.0001661787572382209 5.336307567702092e-20 0.0008010015276223492 -0.0005491339350661832 
0.003864456277956967 -0.0006770702994043508 1.694065894508601e-21 -0.0001899395821928363 -0.0002971540154613591 -0.001547866218399108 
0 0 0 0 0 0 
0 0 0 0 0 0 
0 0 0 0 0 0 
0 0 0 0 0 0 
0 0 0 0 0 0 
0.0007796737006134058 -0.001017865810810546 0 0 -0.0001986198012693342 -6.776263578034403e-20 
0 0 0 0 0 0 
-0.005188103550396128 0.0005325353136976311 -0.004238755319090281 -0.00164140167582185 0.001846716595255607 0.004186330582010757 
0 0 0 0 0 0 
0 0 0 0 0 0 
-0.0004152915386607835 0.001214592024018043 0 -0.0001305525810785262 0 -0.001012366987031224 
-0.03130224853975725 0.02085278664511134 -0.0009782969180994613 -0.008561107814206917 -0.002411912935887666 0.008797395194157778 
0 0 0 0 0 0 
0 0 0 0 0 0 
0 0 0 0 0 0 
0 0 0 0 0 0 
0 0 0 0 0 0 
0 0 0 0 0 0 
0 0 0 0 0 0 
0 0 0 0 0 0 
0 0 0 0 0 0 
0 0 0 0 0 0 
0 0 0 0 0 0 
0 0 0 0 0 0 
0 0 0 0 0 0 
0 0 0 0 0 0 
-0.0005247553636227963 0.0005436217968978781 0 0 0 -7.696742911951272e-05 
-0.002739921298371835 -0.001758539074220153 -0.0003799719008716369 -0.0007997974926601364 0.01134042526983614 -0.001539250004303367 
0 0 0 0 0 0 
0 0 0 0 0 0 
0 0 0 0 0 0 
0 0 0 0 0 0 
0 0 0 0 0 0 
0 0 0 0 0 0 
0 0 0 0 0 0 
0 0 0 0 0 0 
-0.005343083877529743 0 0 -0.0002092192172411934 -0.001332767037456018 0.005133668835687175 
0.004486291311471219 0 0 -0.0008368768689647738 -0.001469085389404546 8.470329472543003e-21 
0 0 0 0 0 0 
0.00171231177365366 -0.0001179336000500036 0 -0.0005813613427647587 -0.0001043866431833064 -0.001030764075048593 
0 0 0 0 0 0 
0 0 0 0 0 0 
0 0 0 0 0 0 
0 0 0 0 0 0 
0 0 0 0 0 0 
0 0 0 0 0 0 
0 0 0 0 0 0 
0 0 0 0 0 0 
0 0 0 0 0 0 
0 0 0 0 0 0 
-0.001061464902874871 0.003431763807607212 -0.0004534610990267458 -0.003077361918015442 -0.0007565656954610782 0.001230457393551276 
-0.00414936557902385 0.001910586023132599 0.0004620755660474551 0.0008407616526493815 -0.0002944320916407926 0.0013527424654984 
0 0 0 0 0 0 
-0.003271296735005831 0 0 -0.0008368768689647738 -0.002627680217530403 0.006160402602824609 
0 0 0 0 0 0 
0.001607880129007539 0 0 -0.001330138928603139 -0.0004418816235653587 -0.001027269368648059 
0 0 0 0 0 0 
0 0 0 0 0 0 
0 0 0 0 0 0 
0.01083961563838808 -0.0007076016003000211 0 -0.001231363908833471 -0.0010682014826652 -0.005405924898659956 
0 0 0 0 0 0 
0 0 0 0 0 0 
0 0 0 0 0 0 
-0.001292931341079509 0 0 0 -0.0001930991380209755 0.001026733767137436 
0 0 0 0 0 0 
0 0 0 0 0 0 
-0.005066984394367805 0.002598361464757144 -0.0007348784214122301 -0.0006343660927856348 -0.0002484620627743746 0.008739285706487857 
0.01203644615648623 -0.05301540778463587 -0.0006129914897760738 -0.02155106605245324 0.009648314499473634 -0.002308727078859942 
4.725718200566244e-05 -0.03180149927635602 0.006959474338340858 -0.002362736971359519 0.005670282550408075 0.01551156992383768 
-0.01114510139087347 -0.02812894238792322 0.01949807419361176 0.005117895402827844 -0.005545259937933651 0.01684177946619927 
-0.02663999208312028 -0.00203123249654891 0.02032150682342141 -0.004342279360441602 -0.008758380145962251 0.01139644052571504 
-0.03351346347090501 -0.004012669353912078 -0.004355386369600089 -0.004956814618460476 0.01264193324939382 0.04348835417624131 
0.0130092263153758 -0.01144212493441013 -0.002047405144000824 -0.01401998867274821 0.001054316450686687 0.01324009271572031 
0.0420374887338993 -0.006279720963871558 0.02712730770363495 -0.007016157811276235 -0.04824703235033902 -0.04074915706365728 
-0.009623206730367489 -0.03594282570286737 0.0004090428704196243 -0.0106382325405894 0.01534682620834396 0.02990186445522374 
-0.007693146813891223 -0.005847971777146401 0.001170185011332029 0.002323241996906266 0.0006954977395355198 0.002209483960659028 
-0.01389642855314582 0.002378853673941419 0.005088961356061336 -0.001284825828200672 -0.00262776556901163 0.006248269045854527 
-0.01323250099486402 -0.008351067872608191 -0.0004253822477430143 0.003752474443938773 -0.001449651289835849 0.01698046315261906 
-0.0124445003459082 -0.004964224630259988 0.003468260298045137 0.01321241168035123 -0.005272933974891364 0.00206504043394506 
-0.007681136497698282 -0.01355793444930885 0.0048674131236226 0.006633054773033044 -0.0009673425637946551 0.01163431779543864 
-0.01412212598021188 -0.003866730803707885 0.01058991591883223 -0.003577656823109654 0.006524601598253641 0.002727712266512451 
-0.004050152026069193 -0.008745882046492003 0.003267823148680287 -0.001105291280546279 0.0187296906947895 -0.004030399586602753 
1.364060028589756e-05 0.005649403293871404 -0.004147121174551253 0.006984428965934223 0.01640492475364065 -0.01801130953888223 
0.0002728888569918422 0.02434779390052776 -0.01088298341908419 -0.002735685115000328 0.01166955323026382 -0.004194655248705534 
-0.01135055725647324 0.00776023795061883 -0.005753314833160315 0.004553849667334778 0.01228558235594065 -0.001825348009293246 
-0.01720568573783609 0.0004711358774969885 -0.007514535272460973 0.001428441930882351 0.01550392749629276 0.01281752131787457 
-0.03023185300105031 -0.001022028676335689 -0.009133365706905053 0.01060578901524286 0.0003656153917705312 0.00875733538425906 
0.02061251186581312 0.005763090139000981 -0.002418971272690088 -0.006178203959397539 -0.01685360234884676 0.007665039741762992 
0.003862364999804975 -0.0001212878682606611 -0.007006383569965175 -0.004732717859822174 0.004851743405661852 0.001235761484095659 
0.04308820622306535 -0.01177962101563144 -0.001399489653001377 -0.0145762063485574 0.002616787263177372 -0.0255829289050171 
-0.00312288295524673 0.0144076306850745 0.001587784357049101 -0.04557503594272048 0.03652378663515385 -0.01825318225703657 
-0.02813161632267239 -0.001405081493603794 -0.009106163503988759 -0.01416039900715223 0.03504244053108883 -0.001841161978249717 
-0.00415649657125805 0.01460934801819534 -0.0007388754121525126 0.008824868506364953 -0.008604776847429413 -0.006512035582512062 
-0.01049984033486051 0.01038256799999826 -0.003325645656331668 0.003455449473145448 -0.001763915984866519 0.003669594348296766 
-0.01018179377102595 -0.002919973391572646 -0.001553340462011252 -0.00136141150113806 0.005532425387239684 0.003373503284784197 
-0.02231988711574454 0.005968940051231345 -0.003323299562622402 -0.0004296550302894458 0.003832768264333222 0.009220356405463368 
-0.0105096443352621 0.01202432359322046 0.003184683513313833 0.01238671517848533 -0.004654824051206843 -0.006243379599010131 
-0.01881360915685663 0.02871328724662304 -0.004743993600257294 0.007296789306806543 -0.002549753067822776 -0.01118767556074567 
-0.005814662898356505 0.02099907328251736 -0.004973166683952121 0.01010295336650712 -0.001108184027150341 -0.01275573940949417 
-0.03509321092048994 0.03181582427853866 -0.01218270117518323 0.01887140241054695 -8.026037998268514e-05 -0.005329380942039981 
-0.005063820355148621 0.01583903317810396 -0.005309448464766096 0.0005995641387545204 0.009918322610329124 -0.009419596015739967 
-0.01279938009461914 0.01303086189829399 -0.002793451537808531 0.007067813969142392 0.01057386976107387 -0.01481026831852937 
-0.01650519516606183 -0.00102810569193812 0.001205353714103842 0.004998758273174467 0.007730674721675563 0.002629655750375859 
0.03081309379474007 -0.04259937388218552 0.006972231625620568 0.0369093942025556 0.0225018848549791 -0.03705617356271661 
0.00975399379554754 0.007925038524055796 1.355252715606881e-20 -2.541098841762901e-20 -0.004158150568127051 -0.01819372759496963 
-0.01692726148552062 -0.003402905030205276 0.001207064922049466 -0.001382868800720734 -0.000973389075342272 0.01937898640868662 
0 -0.0004947803115769455 0.0104206649600231 -2.946429201703747e-05 -0.003596105569334664 -0.002033146749970416 
-0.003773773021436995 -0.00212441653690677 -0.001569849440467917 -0.0009417635486123322 0.01254271924848641 0.0006187352515756924 
0 0 0 0 0 0 
-0.004841805371659572 3.388131789017201e-20 0 0 -0.0005582340259026673 0.006199350224442254 
0 0 0 0 0 0 
-0.006651653645471082 0.001092064979325372 -0.0002119478051190781 -0.003658251150682477 -0.00364377642897971 0.01010725117595544 
0 0 0 0 0 0 
0 0 0 0 0 0 
0 0 0 0 0 0 
-0.0001483026606049362 -0.0002718064357794569 0 0.0007090808875321512 0 0 
0 0 0 0 0 0 
-0.005159303141138961 -0.003898040701152197 -0.01351527565802293 0.01277096385585292 -1.900527123948829e-05 0.003981584563111857 
0 0 0 0 0 0 
-0.01741100194963017 0.009020478320210959 0.01361792124149354 -0.008735389439417309 -0.001838148638198753 0.007531365558046719 
-0.00301485692824333 7.923666073967169e-05 0.0008221317985144254 -0.0006779787655699952 -0.0003427809989838943 0.001634121800464003 
0 0 0 0 0 0 
0 0 0 0 0 0 
-0.001536592963781923 -0.0002800573481599238 0 -2.752857078576476e-21 -0.0001994303864817945 0.001471984956847052 
0 0 0 0 0 0 
0 0 0 0 0 0 
0 0 0 0 0 0 
-0.0042900280748361 -0.002474997655964907 0 -0.001392486192546068 -2.710505431213761e-20 0.01600548480771871 
0 0 0 0 0 0 
0 0 0 0 0 0 
-3.811648262644352e-21 0.0002312658867398456 0 -0.0001695337189584427 0 -3.131352082492477e-05 
-0.01556846506759949 -0.001455843532272947 2.032879073410321e-19 -0.005915227593323445 -0.002120325606295382 0.02119421726922282 
0 0 0 0 0 0 
0 0 0 0 0 0 
0 0 0 0 0 0 
-0.00504861591390894 0.005738581493807786 -0.001687073057155977 -2.437590737485596e-05 -0.003145890657221033 0.00472364607902738 
0 0 0 0 0 0 
0 0 0 0 0 0 
0 0 0 0 0 0 
0 0 0 0 0 0 
0 0 0 0 0 0 
0 0 0 0 0 0 
0 0 0 0 0 0 
-0.004257306836163936 -0.003728358248604073 -0.001640590277604498 -0.0021769782038629 -0.0005353020658988675 0.01297823984135281 
0 0 0 0 0 0 
0 0 0 0 0 0 
0 0 0 0 0 0 
-0.0003097446498154902 -2.052373328178209e-05 -0.0008500016622946982 0 1.524659305057741e-20 0.0008616189845492987 
0 0 0 0 0 0 
0 0 0 0 0 0 
0 0 0 0 0 0 
-0.002463179289341913 0.01393540514661318 -0.001405894214296648 -0.006872729209612888 -0.009094891124671753 0.001883012640023371 
0 0 0 0 0 0 
0 0 0 0 0 0 
0 0 0 0 0 0 
-0.001390293140454218 0.002452255387993691 -0.0004363521920943211 -0.0005906740679711723 -0.0006055960155284142 0.0009662069569154782 
0 0 0 0 0 0 
0 0 0 0 0 0 
0 0 0 0 0 0 
0.03388177864999793 -0.006592157264093674 -0.0008783736584773392 -0.003257322177768602 -0.001470070867509483 -0.01746785555905505 
0 0 0 0 0 0 
0 0 0 0 0 0 
0 0 0 0 0 0 
-0.01673709688068726 0.02917782046466674 0.009091469206779078 -0.00557451235209215 -0.03787983807127308 -0.007829223481082807 
0 0 0 0 0 0 
-0.0001186175000555858 0.0005052478553804635 -7.623296525288703e-21 -0.0004889622113524911 -4.841908507295713e-05 -1.01643953670516e-20 
0 0 0 0 0 0 
-0.0002897651194883128 -0.001095944759942918 0.001426414142841273 0.0006334705979257517 0 -0.0005928105490278699 
0 0 0 0 0 0 
0 0 0 0 0 0 
0 0 0 0 0 0 
0.003609314230256121 -0.003780506696006145 0.0103176540715321 -0.00462181157913897 -0.0006218411404311635 -0.009122150592858079 
0 0 0 0 0 0 
0 0 0 0 0 0 
0 0 0 0 0 0 
0 0 0 0 0 0 
0 0 0 0 0 0 
0 0 0 0 0 0 
0 0 0 0 0 0 
0 0 0 0 0 0 
0 0 0 0 0 0 
0 -5.517554108781121e-05 -0.0002297017833250953 0.0002457005680886534 0 0 
0 0 0 0 0 0 
0 0 0 0 0 0 
0 0 0 0 0 0 
0 0 0 0 0 0 
0 0 0 0 0 0 
0.001409658657555214 0.001518437383309606 -0.0009540670629279705 -0.0003757439255761132 0.002344630848417273 -0.002048365704122302 
-0.0007113878691839893 0.0002310370766287446 -0.0001738874961148141 -0.0003639908583539325 0.0004485665902581955 -0.0004067692332587195 
0 0 0 0 0 0 
0 0 0 0 0 0 
0 0 0 0 0 0 
0 0 0 0 0 0 
0 0 0 0 0 0 
0 0 0 0 0 0 
0 0 0 0 0 0 
0 0 0 0 0 0 
0 0 0 0 0 0 
0 0 0 0 0 0 
0 0 0 0 0 0 
0 0 0 0 0 0 
0 0 0 0 0 0 
0 0 0 0 0 0 
0 0 0 0 0 0 
0 0 0 0 0 0 
0 0 0 0 0 0 
0 0 0 0 0 0 
0 0 0 0 0 0 
0 0 0 0 0 0 
0 0 0 0 0 0 
0 0 0 0 0 0 
0.003315720228949564 -0.001804248833123418 -0.004440794363709765 -0.0004329186494241989 -0.0004266241143708047 0.003270565712915957 
0 0 0 0 0 0 
0 0 0 0 0 0 
0 0 0 0 0 0 
0 0 0 0 0 0 
0 0 0 0 0 0 
0 0 0 0 0 0 
0 0 0 0 0 0 
0 0 0 0 0 0 
0 0 0 0 0 0 
0 0 0 0 0 0 
0 0 0 0 0 0 
0 0 0 0 0 0 
0 0 0 0 0 0 
0 0 0 0 0 0 
0 0 0 0 0 0 
-0.005745438121312316 0.01903297267382134 -0.006141011550950349 -0.003181938280746372 -0.00477485119636179 0.01011274773949931 
0 0 0 0 0 0 
0 0 0 0 0 0 
0 0 0 0 0 0 
0.00347633354080017 -0.0005546922424639732 0 -0.002166608911177459 -0.0002042067011884281 -6.102119481973018e-05 
0.002657822399499766 -0.00166407672739192 0 -0.00106964426942742 -0.007107754406476503 0.004232515212666167 
0.0009128381663254861 -0.00224337324311841 0 -0.002688216262003473 -4.939651562735228e-05 0.0007947394168492894 
0.0299715486531264 -0.01459784632812359 -0.008793000119797891 -0.002833672919947824 0.007411692041516875 -0.01326985226172723 
0 0 0 0 0 0 
0 0 0 0 0 0 
-0.002420902685829787 3.388131789017201e-21 0 0 -0.0001447149067674343 0.002586347815296447 
-0.01241306324376106 0.01574181604922848 0.001302583120002887 -0.008479540608444264 -0.000449513196166833 -0.00373636307517623 
0 0 0 0 0 0 
0 0 0 0 0 0 
0 0 0 0 0 0 
0 0 0 0 0 0 
0 0 0 0 0 0 
0 0 0 0 0 0 
0 0 0 0 0 0 
0 0 0 0 0 0 
0 0 0 0 0 0 
-9.910139934520865e-05 -5.336307567702092e-20 0 0 0.0006293515120549777 -1.18584612615602e-20 
0 0 0 0 0 0 
-0.0003964055973808346 -2.134523027080837e-19 0 0 0.002517406048219911 -4.743384504624082e-20 
0 0 0 0 0 0 
0 0 0 0 0 0 
0 0 0 0 0 0 
0 0 0 0 0 0 
0 0 0 0 0 0 
0 0 0 0 0 0 
0 0 0 0 0 0 
0 0 0 0 0 0 
0 0 0 0 0 0 
0 0 0 0 0 0 
0 0 0 0 0 0 
0 0 0 0 0 0 
0 0 0 0 0 0 
0 0 0 0 0 0 
0 0 0 0 0 0 
0 0 0 0 0 0 
0 0 0 0 0 0 
0 0 0 0 0 0 
0 0 0 0 0 0 
0 0 0 0 0 0 
0 0 0 0 0 0 
0 0 0 0 0 0 
0 0 0 0 0 0 
0 0 0 0 0 0 
0 0 0 0 0 0 
0 0 0 0 0 0 
0 0 0 0 0 0 
0 0 0 0 0 0 
0 0 0 0 0 0 
0 0 0 0 0 0 
0 0 0 0 0 0 
0 0 0 0 0 0 
0 0 0 0 0 0 
0 0 0 0 0 0 
0 0 0 0 0 0 
0 0 0 0 0 0 
0 0 0 0 0 0 
0 0 0 0 0 0 
0 0 0 0 0 0 
-6.979930525067198e-05 -0.001091954824716802 -3.388131789017201e-21 -0.0006757325369535928 0.001380202275775535 0.0009385600707306601 
0 0 0 0 0 0 
0 0 0 0 0 0 
0 0 0 0 0 0 
0 0 0 0 0 0 
0.002559079250119285 0 -0.001139376977393119 0 0.0007928159035035737 -0.0004574420895880004 
-0.002040359259906034 0 0 -6.519022199769882e-05 0 0.002140200768338654 
0 0 0 0 0 0 
-0.005168226149613643 0 0 -3.259511099884941e-05 9.486769009248164e-20 0.006270219289446525 
0 0 0 0 0 0 
0 0 0 0 0 0 
-0.009683610743319145 6.776263578034403e-21 0 0 -0.0003996568188245378 0.009660954865286219 
-0.02259784914973431 -0.0008012787913953314 0 -0.006576864989880138 -0.007216429772694117 0.02773584624538996 
0 0 0 0 0 0 
0 0 0 0 0 0 
0 0 0 0 0 0 
0 0 0 0 0 0 
0 0 0 0 0 0 
0 0 0 0 0 0 
0 0 0 0 0 0 
-0.02112840441474489 0.02326930236152259 0.004870889995530031 -3.683036502128953e-06 -0.004755918642966634 -0.008345577615234127 
0 0 0 0 0 0 
0 0 0 0 0 0 
0 0 0 0 0 0 
0 0 0 0 0 0 
0 0 0 0 0 0 
0 0 0 0 0 0 
0 0 0 0 0 0 
-0.003090897492184512 -0.0004611760357704376 -0.001099125014974737 -0.0002481469887087297 0.002939500831851066 0.003130272813582383 
0 0 0 0 0 0 
0 0 0 0 0 0 
0 0 0 0 0 0 
0 0 0 0 0 0 
0 0 0 0 0 0 
0 0 0 0 0 0 
0 0 0 0 0 0 
0 0 0 0 0 0 
0.006038275233413572 -0.0001253459455484866 -0.001065250108452542 0 -0.003995901213941543 0.003320473234663923 
0.0009348076206070816 -0.0003760378366454596 -0.002739999534400381 -0.003210853311341959 0.004978843764449869 0.001345131952251731 
0 0 0 0 0 0 
-0.001430429686986088 0 0 1.355252715606881e-20 0 0.0006662326774374006 
0 0 0 0 0 0 
0 0 0 0 0 0 
0 0 0 0 0 0 
0 0 0 0 0 0 
0 0 0 0 0 0 
0 0 0 0 0 0 
0 0 0 0 0 0 
0 0 0 0 0 0 
0 0 0 0 0 0 
0 0 0 0 0 0 
0.00460290488254556 -0.00551617614965759 -0.002241700851976335 -0.001339126343318615 0.001028499901539312 0.002331633976075481 
-0.006045267276344201 0.003064721076930067 0.01087404747046915 -0.0004200253476228793 -0.008699502534508895 0.003706077460839195 
0 0 0 0 0 0 
-0.001330434178009613 -0.00114193951983401 -0.004886974375229812 -0.0004013566639177448 0.005490151798109908 0.002680093699211736 
0 0 0 0 0 0 
-0.001873306032677664 -0.0004275957498341851 -0.001399240290019655 -0.00160542665567098 0.006821157453057701 0.0006253340334586171 
0 0 0 0 0 0 
0 0 0 0 0 0 
0 0 0 0 0 0 
-0.009011102012975815 -0.0006841775049092391 -0.001399240290019656 -0.0004013566639177446 0.003507814712400636 0.004601454386314573 
0 0 0 0 0 0 
0 0 0 0 0 0 
0 0 0 0 0 0 
0 0 0 0 0 0 
0 0 0 0 0 0 
0 0 0 0 0 0 
-0.004710106427489936 -0.0002293183083559036 -2.202285662861181e-20 -0.001222405528381227 -0.0008934427600328355 0.005226737839472348 
-0.01804113991612702 -0.005969000449068642 0.006272678266033331 -0.05707758668222881 -0.01059011207117865 -0.00573782634285618 
0.01590225926852847 -0.0373485109709056 -0.002443320102433076 0.010824079749779 -0.006239948102048427 0.02321411793801831 
-0.006881038586609747 -0.02557878126832177 0.00550843837126982 0.01136435728158189 -0.004552393022525819 0.02256231561147626 
-0.001065823942915973 0.01617986029388649 0.01603479481058127 -0.01796056710572283 -0.0006673924417647814 -0.01149331807322713 
-0.02813649691116448 0.007557029109523239 0.009172764875647789 -0.005444838026047671 -0.002356094786010863 -0.004560876349910206 
-0.008817012974904672 0.0127564834566616 -0.007544032191932037 0.005916974785798846 -0.007572165018641656 0.001958885426485121 
-0.01200628018600369 -0.009174619942830189 0.01241800563458207 -0.004634280187943788 0.006802222004973808 -0.005305994207456196 
-0.02950461528035436 -0.03220120902196515 0.03299940496819935 -0.02977157294530532 0.01026729456274583 0.01342675554544377 
0.03271826233062936 -0.03292340904065535 -0.00522619200045597 -0.006608937946533808 -0.003005806755311119 0.00533782379793715 
-0.0185789969829649 0.003025538087874849 0.003540985114241162 -0.01265066789818712 -0.005194144410630367 0.02432640013062612 
-0.0267704850032761 -0.003094111856719723 0.0004859860240626814 0.01505397621215282 -0.006385237851700926 0.02499296992116647 
-0.01731159005200194 -0.003606989089521487 -0.004399380063219624 0.01407606871563525 0.01360024000943991 -0.004393145932454462 
-0.0204056731222229 0.01004196631830883 -0.000959225343736832 0.009263593049460093 0.002373396573624873 0.007052937760009663 
-0.009146411698238247 0.0003813978386699845 -0.001053209552857173 0.008963657108394809 0.01565327635255799 -0.01664687676273775 
0.01281254814898389 0.003181556512756525 -0.0008785908740555096 -0.004004041187687284 0.007471085065728057 -0.01024310020137637 
-0.04017924015874394 0.01785654467797568 -0.0155572636340632 0.05813573283836834 0.00411577117333627 -0.03651066152564415 
-0.005387636231793834 0.01131300803426643 -0.009032855198162064 0.01760210465755345 0.0007438411117661195 -0.00489569781298948 
-0.009020586489060709 0.01762711890049094 -0.004569232738917666 0.002227927251298638 0.0008638736803299695 0.009289332191426452 
-0.02493854631615488 0.01075803462330728 -0.01648984923762878 0.01041243050771144 0.02798828284421754 0.008861508238856178 
-0.02112152683935282 -0.005203104478037745 -0.01020974590112548 0.01942627408836348 0.01141030075779756 0.00241986935587291 
-0.02246107021759094 0.01742115124664462 -0.002460878662555851 0.000860421535831581 -0.001903740712620182 0.01361898338288381 
0.006273094585606796 0.005754280363231346 0.0003596751922772831 0.001472491546838779 -0.005358675777575444 -0.007234571289088054 
0.03857132854343398 -0.006941448673076763 -0.01078440417813309 -0.001261691072346018 0.009009930677715994 -0.02877342783512249 
-0.01371256389864316 0.007215602517178153 -0.03622032523329828 -0.00881706003527581 0.02399160725301682 0.01694666397600931 
0.02782871102966706 -0.04315450350656643 -0.01716102584462236 -0.005515617720356874 0.03833877369446521 -0.0188083649329264 
0.009781557205617337 0.008754613843242434 -0.009529789661208177 -0.001471930682691035 -0.00280852626159157 -0.00801444208048511 
-0.03279261280368014 -0.004396475303113801 -0.008266393270677259 0.01724738859242161 0.00216866472716044 0.02114457871318061 
-0.02026692628838291 -0.006130754200193933 -0.00624941033959079 0.004136421868408941 0.007260973243433249 0.01608310684165142 
-0.02536631656928925 -0.001925062966420273 -0.009960477435824865 0.01498024026122292 -0.007083907156028731 0.01672072795646836 
-0.008454153016805211 0.00172759716409676 -0.01052047747866464 0.008648197553376046 0.01351601671013873 0.005438458941684148 
-0.006703855336432829 0.0006963961957775141 -0.007224807081911926 0.003931165048746845 0.01026454561858439 -0.006740329569229668 
0.0128982262700971 1.684420914703299e-05 -0.01930023949007443 0.0122696685235195 0.01842538511551857 -0.02336679128461757 
-0.008106396082278144 0.02438382188502514 -0.02360121712757302 0.01461404367416254 0.005290655400196694 -0.03154068579326039 
0.002837699609075821 0.01281783110671693 0.001371724403203054 -0.00603630252378577 0.003955878496809597 -0.02229850758615697 
0.001337668307608139 0.004385845638825454 -0.001146370304872579 -5.991235485520579e-05 0.001568930168153253 -0.0107091302178834 
0.0006660617851718214 -0.005909658012898112 -0.002862376538999458 0.01017312867037877 -0.003573826306989668 -0.004224339469936344 
0.0479980015362762 -0.04205920307522891 -0.001328996573250329 -0.03173219840562966 0.06294588493746044 -0.02432076461089128 
0.00918370562372536 -0.003116516592524115 -0.0002714308378516082 -0.002721620835461624 0.007523638148808569 -0.002209149587349413 
0.006907488712882775 0.0003301838568280285 -0.000130173239308063 -0.001797342223218939 -0.006256702924202938 0.005360536136396041 
0 0 0 0 0 0 
-0.006605747496902622 -0.004930584888270861 -0.002360141934241874 -0.002355644553902245 0.01340825539881419 0.0004500432276334715 
0 0 0 0 0 0 
-0.009621698713495013 -0.01174780825258242 -0.0003443846812664793 0.0006462857672379464 -0.00166316923291344 0.01423867600534495 
0 0 0 0 0 0 
-0.003696108228960803 0.01225825639823666 0 -0.002729431907478934 -0.005196996085043423 -0.007079975843630779 
0 0 0 0 0 0 
-0.0003756453306401435 0.0005242702499657103 0 -6.776263578034403e-21 0 -0.0004381161875112957 
0 0 0 0 0 0 
-0.0002998803346121717 -0.001149673613286748 0.001476207872107354 -2.540359434079137e-06 -0.000396392239230854 -0.0003934663283669534 
0 0 0 0 0 0 
0.01153989319832826 0.0001507543175928439 -0.01869772699977392 0.0003231428836189732 0.02947888867183128 -0.01773981219520582 
0 0 0 0 0 0 
-0.01245960257838052 0.002260656789914954 -0.005258790187514915 -0.006075197769630151 0.0009119066108636729 0.0006768177767917127 
0.006719524098535069 0.003176873923616764 -0.002214437848643559 -0.001303135651240476 2.374171169242931e-05 -0.006262594826764115 
0 0 0 0 0 0 
0 0 0 0 0 0 
0 0 0 0 0 0 
0 0 0 0 0 0 
0 0 0 0 0 0 
0 0 0 0 0 0 
-0.008814542696252424 0.0003926322279026864 -4.698494930184507e-06 -0.003039033872739211 -0.0001349017302083735 0.004212528686520436 
0 0 0 0 0 0 
-0.0005207601690106854 0.0007142416211808753 0 0 0 -0.0006283085047922294 
0 0 0 0 0 0 
0.003291256958125228 0.004717808880547804 0.000839956845331938 -6.501251254783823e-05 -0.00358050320754252 -0.006955391275004664 
0 0 0 0 0 0 
-0.002487717702155238 0.004285449727085259 -0.0001721923406332398 -4.236712093102306e-05 -0.0001044305279227312 -0.00421050578304284 
0 0 0 0 0 0 
3.388131789017201e-21 -3.684593320556206e-20 0 4.658681209898652e-20 0 1.747005453711994e-20 
0 0 0 0 0 0 
0 0 0 0 0 0 
0 0 0 0 0 0 
0 0 0 0 0 0 
0 0 0 0 0 0 
0 0 0 0 0 0 
0 0 0 0 0 0 
-0.00302050025220658 -0.01023397789567182 0 -0.0002663906515026072 -0.002189391151472389 0.01675523286722793 
0.001524652560404675 -0.0001799475678828392 0 0.0001540900216357339 -0.001591877810925903 -4.879955647002923e-05 
0 0 0 0 0 0 
0 0 0 0 0 0 
0 0 0 0 0 0 
0 0 0 0 0 0 
0 0 0 0 0 0 
0 0 0 0 0 0 
0 0 0 0 0 0 
0 0 0 0 0 0 
0 0 0 0 0 0 
0 0 0 0 0 0 
6.776263578034403e-21 0.000245881633581637 0 0 0 -0.0001651573316912941 
0 0 0 0 0 0 
0 0 0 0 0 0 
0 0 0 0 0 0 
-1.762229868676783e-05 -0.006570113461262084 0.002939193298268072 -0.006123808771629903 -0.01245901267519499 0.00501149038328378 
-0.00251165436147011 -0.001591282560390061 0.0004344774983822253 -0.0003808971799879418 -0.006031895875794372 0.005366148922896164 
0 0 0 0 0 0 
0 0 0 0 0 0 
-0.02250259999448044 0.01337161130052391 0.03136444165403472 -0.01548092966462811 -0.002222952025045885 -0.01403123807862913 
0 0 0 0 0 0 
3.794707603699266e-19 -0.0004516991078199868 -0.009453559357293966 -1.002887009549092e-18 -0.00944783024651402 -0.0003100077452830736 
0 0 0 0 0 0 
-0.001012725037518419 -0.000804541158539364 0.006201088808170508 -0.001626718487345307 -0.000642378222711429 -0.001196639902602929 
0 0 0 0 0 0 
0 0 0 0 0 0 
0 0 0 0 0 0 
-0.006681634547856729 -0.007639505414253478 0.0005407923655129311 -0.008345608993236719 0.02822885670621614 -0.01164346458826641 
0 0 0 0 0 0 
-0.001413453659800471 0 0 0 -0.0002110991316152804 0.001122442124103394 
0 0 0 0 0 0 
0 0 0 0 0 0 
0 0 0 0 0 0 
0 0 0 0 0 0 
0 0 0 0 0 0 
0 0 0 0 0 0 
0 0 0 0 0 0 
-0.0003985993822882226 0.0005242702499657103 -0.0002812747953780367 -6.776263578034403e-21 0.001020114455163929 -0.001080230057060435 
0 0 0 0 0 0 
0 0 0 0 0 0 
0 0 0 0 0 0 
0 0 0 0 0 0 
0 0 0 0 0 0 
-0.0005351932211853255 8.467313580343209e-05 -3.770034728130265e-05 -0.0003141556459952239 -0.0001151470348476379 0.0006174558081226028 
-0.003475750119339881 6.681890703987365e-05 -6.785770946290188e-05 -0.0001354762538765158 0.002648986866743613 0.001493630544762727 
0 0 0 0 0 0 
0 0 0 0 0 0 
0 0 0 0 0 0 
0 0 0 0 0 0 
0 0 0 0 0 0 
0 0 0 0 0 0 
0 0 0 0 0 0 
0 0 0 0 0 0 
0 0 0 0 0 0 
0 0 0 0 0 0 
0 8.470329472543003e-20 -1.084202172485504e-19 0.001866646667918365 0 -3.388131789017201e-21 
0 0 0 0 0 0 
0 0 0 0 0 0 
0 0 0 0 0 0 
0 0 0 0 0 0 
0 0 0 0 0 0 
0 0 0 0 0 0 
0 0 0 0 0 0 
0 0 0 0 0 0 
0 0 0 0 0 0 
0 0 0 0 0 0 
0 0 0 0 0 0 
-0.001985662003492763 -0.001808160903314119 -0.0003953795997648946 -0.0002040349375011538 -0.001035578912335251 0.003230494009146571 
0 0 0 0 0 0 
0 0 0 0 0 0 
0 0 0 0 0 0 
0 8.470329472543003e-20 -1.084202172485504e-19 0.001866646667918365 0 -3.388131789017201e-21 
0 0 0 0 0 0 
0 0 0 0 0 0 
0 0 0 0 0 0 
0 0 0 0 0 0 
0 0 0 0 0 0 
0 0 0 0 0 0 
0 0 0 0 0 0 
-0.002558955238022241 0.00282291310369593 -0.01849100268660402 0.04305574293752742 -0.008699811841488355 -0.0007218018443173582 
0 0 0 0 0 0 
0 0 0 0 0 0 
0 0 0 0 0 0 
0.005766410911157754 0.001375253858702323 0.003122044673461426 -0.003897311104413596 -0.003195154572645425 -0.006648551386281873 
0 0 0 0 0 0 
0 0 0 0 0 0 
0 0 0 0 0 0 
-0.01673884469096543 0.008992347160692608 0 -0.001285564085226703 -0.003231713354838292 0.008754269178027503 
-0.006782534112334502 0.009112571363801267 0 -0.000161830749128709 0.00189235155005774 -0.0004388443041541566 
-0.001152979484299921 0.00519678212418933 -0.0004885534523261143 -0.001880218530158998 -0.002132573171530599 0.0005818547229913538 
-0.02427821471113488 0.009388849752951086 -0.008146836944778848 -0.001016729656217042 0.01104928803607724 0.01815335424361273 
0 0 0 0 0 0 
0 0 0 0 0 0 
-0.0001551892953131015 -0.0009036775578909556 0 0 -3.067788607627498e-05 0.0006563546616011985 
-0.0148439555154808 -2.032879073410321e-20 0 0 -0.0001810303534391772 0.01196820727598425 
0.0006489685875670629 0 0 3.981054852095212e-20 -0.000501720579572158 7.623296525288703e-21 
0 0 0 0 0 0 
0 0 0 0 0 0 
0 0 0 0 0 0 
0 0 0 0 0 0 
0 0 0 0 0 0 
0 0 0 0 0 0 
0.005048861071899853 -0.0001730554073395077 -0.007167184541334835 0 -0.02945633827955681 0.02097477794615342 
0 0 0 0 0 0 
4.616329562535937e-20 -3.049318610115481e-20 0 0 0.002562032452448018 -0.0007387493594070018 
0.0001479207473490627 -7.751980144625828e-05 0 -0.0002210379543755537 0 0 
-0.008150566190563941 -1.219727444046192e-19 -4.336808689942018e-19 -0.0001831901868017815 0.00759177751225358 0.006668606178023507 
0 0 0 0 0 0 
0 0 0 0 0 0 
0 0 0 0 0 0 
0 0 0 0 0 0 
0 0 0 0 0 0 
0 0 0 0 0 0 
0 0 0 0 0 0 
0 0 0 0 0 0 
0 0 0 0 0 0 
0 0 0 0 0 0 
0 0 0 0 0 0 
0 0 0 0 0 0 
0 0 0 0 0 0 
0 0 0 0 0 0 
0 0 0 0 0 0 
0 0 0 0 0 0 
0 0 0 0 0 0 
0 0 0 0 0 0 
0 0 0 0 0 0 
0 0 0 0 0 0 
0 0 0 0 0 0 
0 0 0 0 0 0 
-0.001850560365675048 -0.0005824412739026252 0 0 0.001244399863480754 -0.0001735929406052657 
0 0 0 0 0 0 
0 0 0 0 0 0 
0 0 0 0 0 0 
0 0 0 0 0 0 
0 0 0 0 0 0 
0 0 0 0 0 0 
0 0 0 0 0 0 
0 0 0 0 0 0 
0 0 0 0 0 0 
0 0 0 0 0 0 
0 0 0 0 0 0 
0 0 0 0 0 0 
0 0 0 0 0 0 
0 0 0 0 0 0 
0 0 0 0 0 0 
0 0 0 0 0 0 
0.003352513655490299 -0.001685279486842612 -0.0002131955121004404 -0.0004703660635954938 -0.002859615335596469 0.001199769389684756 
0 0 0 0 0 0 
0 0 0 0 0 0 
-3.388131789017201e-21 -0.0003238828924221214 0.001236213869904419 2.202285662861181e-20 -0.001889566049302803 -6.200154905661454e-05 
0 0 0 0 0 0 
-0.001320717570355139 0 -0.002247028395628819 0.004976393429963834 -0.0005093245505989513 0 
-0.001665777030399181 2.032879073410321e-20 -0.001801245284501995 0.002696050898994789 0 0.002805398036095837 
0 0 0 0 0 0 
-0.0005552590101330595 0 0 -1.01643953670516e-20 0 0.0009351326786986127 
0 0 0 0 0 0 
0 0 0 0 0 0 
-0.007616855150322763 -0.0006194656909065524 -0.0003909235228450682 -0.001040251803183766 -0.001760665944620441 0.01125244564351092 
-0.01734994037595922 0.001993674361049335 -0.001163833849254122 -0.001049284274428416 -0.0007201531937983331 0.01338992948852032 
0.0006489685875670629 0 0 3.981054852095212e-20 -0.000501720579572158 7.623296525288703e-21 
0 0 0 0 0 0 
0 0 0 0 0 0 
0 0 0 0 0 0 
0 0 0 0 0 0 
0 0 0 0 0 0 
0 0 0 0 0 0 
0.000942298354701843 -2.472220104850111e-05 -0.001023883505904977 0 -0.001178253531182273 0.0008389911178461354 
0 0 0 0 0 0 
0 0 0 0 0 0 
0 0 0 0 0 0 
0 0 0 0 0 0 
0 0 0 0 0 0 
0 0 0 0 0 0 
0.0007258345800710595 0.0004133065639161343 0 -0.0004940861111121025 -8.321257773802896e-05 -0.0003662919054425742 
-0.003035256827104935 0.0001202242031086471 5.421010862427522e-20 -0.0002768489380948593 0.00230644944484165 0.003083492953729383 
0 0 0 0 0 0 
0 0 0 0 0 0 
0 0 0 0 0 0 
0 0 0 0 0 0 
0 0 0 0 0 0 
0 0 0 0 0 0 
0 0 0 0 0 0 
0 0 0 0 0 0 
-0.003529399333937577 0.0145191437276691 -0.0001302603282337285 -0.001144267467756886 -0.005765033684579852 -0.0004164317493450634 
0.000710854703994168 0.001917804672382077 -0.001910426957284364 0.003588366836829715 -0.002652658319923948 -0.0008328634986901272 
0 0 0 0 0 0 
0 8.470329472543003e-21 -0.001125778302813747 0.001685031811871744 0 0 
0 0 0 0 0 0 
0 0 0 0 0 0 
0 0 0 0 0 0 
0 0 0 0 0 0 
0 0 0 0 0 0 
0 0 0 0 0 0 
0.0006489685875670629 0 0 3.981054852095212e-20 -0.000501720579572158 7.623296525288703e-21 
0 0 0 0 0 0 
0 0 0 0 0 0 
0 0 0 0 0 0 
-0.006981071833335709 0.001150932779936442 -0.006871931568857043 -0.0020034062934802 0.005196767888180854 0.007343398600697284 
0.003547435345514962 0.0005121346981018922 -0.006143301035429849 -0.0003223866055791663 -0.01004233191608979 0.01043478690207639 
-0.0006791347387384175 0.003360776817833788 -0.0003256508205843215 0 0 1.058791184067875e-21 
-0.005677633264086279 0.0142614932385406 -0.0003460087135704667 -0.0007557741010268854 -0.004604995382774334 -0.003031584964551281 
0 0 0 0 0 0 
0.0001903376557026919 0.001003843950414441 -0.002249292500628159 0.003794109866599125 -0.001389994728786842 -0.0005964978297894307 
0 0 0 0 0 0 
-0.0006300492572627878 0.0007574519958027054 0 -1.10114283143059e-20 6.776263578034403e-21 3.388131789017201e-21 
0 0 0 0 0 0 
0.0006856067445858696 0.001003843950414441 -0.0005060342100163517 0.0005799368808652918 -0.001198998022312236 -0.0005964978297894308 
0.006035483869678998 0.002450028903811039 -0.00271890226896538 0.001902632858116339 -0.004709129393707154 -0.003349968485585617 
0.006669333707829034 0.004331419734674807 0.005026263148625519 0.001597317116089831 -0.009048849604373214 -0.005831231379079316 
0 0 0 0 0 0 
0.001088917793346893 0.0007897176336025692 0.001100632499494732 0.0002657394024611371 -0.001639738240868647 -0.001033945893673184 
0 0 0 0 0 0 
0 0 0 0 0 0 
-9.920406456353966e-05 0.001315026316703604 0.007843595506203675 -0.0007815282868398025 -0.009771231438940306 -0.003498723478888912 
-0.006790393108683193 0.01781913690422129 0.04413192935941238 -0.0170735395217434 -0.08803740505049798 -0.02784448690964092 
-0.001944665976187289 -0.03125640220081909 -0.005776774901513212 0.01536384767180042 -0.01097155277940693 0.02588159587973213 
-0.03490090276103305 -0.01607806747117928 0.002645126718910097 0.0149873981183624 -0.01044778314275085 0.03505386925264233 
0.01947966957095741 0.01096220732906937 0.01378092674698924 -0.0103299656726393 -0.00912328132392079 -0.01906907108793096 
-0.0148418925900613 -0.006161354389873 -0.002999207227573638 0.01642780794355322 0.005574160096359393 -0.01123581861569596 
-0.01402488686780393 -0.01018430602006863 -0.003820415368708602 0.00955326539464965 0.006994907899648422 -0.0001853124557507532 
0.01036726654651908 -0.01862156238224865 0.00754176493310864 0.02100735826749046 -0.004165521281506132 -0.0118839571176447 
-0.004590616864072146 -0.03323534930761221 0.01666149708065562 0.008463511947880569 -0.0129439282139502 -0.00123133407491415 
-0.0332471476602742 -0.006469360385663842 0.0002122323360031856 0.01057233506322118 -0.0003447644158020098 0.02152347317727653 
0.009393226297564759 0.004232632749246167 -0.005028283682058606 0.002962071156863831 -0.0008055922365798161 -0.01050371733949043 
0.02387863113130499 -0.0006445855038225908 -0.00297905018810569 -0.007588007565309823 -0.007656044493051784 -0.0004766467407533233 
-0.00963406095562455 -0.01723314182455482 -0.005139108607962439 0.01588781432207333 -0.003654677125204064 0.01134610824526096 
-0.003026346497538453 -0.01931873114642797 -0.004057782424040525 0.01400654548420128 -0.002056354237882294 0.01151432242351275 
-0.009241661089486215 -0.001285931370732957 -0.00278200748199499 0.003556653874046387 -0.00214274954581052 0.001160211697333242 
0.004234621619366874 -0.006876287702298038 -0.006733214736413159 0.004422708672240338 0.01000304205239875 -0.006049559605469606 
-0.02082070735352576 -0.006401631149904066 -0.003837356098565564 0.04255355679791305 -0.004486659184978752 0.004968636408233361 
-0.005349363252976725 -0.006778407323510114 -0.0160381867281208 0.02303085247132617 0.002233051888499956 -0.00483769915317374 
-0.01346596055305401 0.004354180879930724 -0.005506122210085817 0.005596485906137601 0.004894128505768358 -0.0001980387038828504 
-0.009812020307370137 -0.002551404605403599 -0.001281574221434984 0.007980500690853008 0.0004880206326693651 0.004179940866556895 
-0.02333985152888739 0.008437464088527826 -0.002733857457601223 0.003509290036130772 -0.003331351425184023 0.01179488895529558 
-0.03977984538925902 0.01199315244091342 -0.00846884564829441 -0.00073066313390907 -0.002567184459482904 0.02975369707218939 
-0.03215330382838112 0.0131503877060657 -0.008091246845369566 0.01123244174042016 -0.003200914797916647 0.01173756333276361 
-0.01500203572803333 0.02114845437954785 -0.01099726900979947 0.01627517657245774 0.001477518536528369 -0.008264476432009239 
-0.04989379533545449 0.01427178876692593 -0.0138397858010103 -0.01849995147903084 0.05793539703060734 -0.004160913743225229 
-0.01497084862878855 0.004716808870784547 -0.0211680542869002 -1.145280773989426e-05 0.01726118176974976 -0.0004986071450600579 
0.0309056021079623 -0.001030906823404828 -0.008540094567917997 0.01318351334085581 -0.007224927795808257 -0.01204492897488458 
0.01747226125010026 0.004660963908415406 -0.006569811953167406 0.002429388046429161 -0.01027178543967038 -0.00326868062068053 
-0.007397090642857846 -0.004478753049151032 -0.006920234216795955 0.0005154477831398831 -0.002267797655542949 0.01796452819443544 
-0.02693736105054351 0.005904038148080732 -0.00497147589684367 0.000786244788355056 0.02436086350637183 -0.01068379368756172 
-0.004584652785264855 0.009282312807125466 -0.006496697303811834 -0.005597610569625222 0.005214908991122678 -0.002777608239895756 
-0.02148349025615916 0.009095274250173506 -0.004984084081406663 0.0008931910750072384 0.003223688030939725 0.001398930928599668 
-0.01136742729222016 -0.00565793190658741 -0.005916561784277186 0.004531526291520521 0.01540965886686106 0.0003063140104971944 
-0.0503415736121671 -0.02120005740664651 -0.004894232413559584 0.03219362905664485 0.02489565737611743 -0.01742600903722317 
-0.02141138484643546 0.004320041205960848 0.002065342222651193 0.0003480186567802811 0.000476694295981004 0.005009862453524152 
-0.02018240404304361 -0.01260452916717779 0.008271064079847746 0.006304088578749876 -0.003770610880553963 0.012667822637907 
-0.01144312268949806 -0.01598428807469444 0.001779978446823009 0.01502014676389703 -0.0006852148481298492 0.01110383833225344 
-0.03116604851616582 -0.03952489183404159 -0.01243404318513745 0.04746632724839997 0.03585653855832624 -0.001075985991164579 
0.01202381360760043 -0.004859962089362305 8.131516293641283e-20 -0.00315547315590508 0.005841964621836533 -0.00374331202015162 
0.01210139228251906 -0.007268113899649954 0 -0.0008445815461237332 -0.005222271940111675 -0.006239653509071294 
0 0 2.710505431213761e-20 -0.0005259121926508467 0.0009736607703060883 -1.091737000886283e-05 
-0.003499895592662964 0.0001059994984756066 -8.310838164906964e-05 0.0002959673153412621 0.002553837991945935 0.0006084069136942455 
0 0 0 0 0 0 
0.01311387589359631 -0.002053869632273202 -0.0002875874035200189 0.001202158454572195 -0.007746756764713487 -0.00292707291989113 
0 0 2.710505431213761e-20 -0.0005259121926508467 0.0009736607703060883 -1.091737000886283e-05 
0.01700812050162438 -0.01858422308631632 0.01618466141355569 -0.0119539648314088 -0.00684410454916244 0.004234302685343081 
0 0 0 0 0 0 
0 0 0 0 0 0 
0 0 0 0 0 0 
-0.02173737920144277 -0.001971066072595015 -0.003268132177468398 -0.000343439013593742 0 0.02250678683912219 
0 0 0 0 0 0 
-0.01994211912117451 -0.001368475831611203 0.003695343539447353 -0.001600362185385749 0.01250243396928043 -0.00244171614119782 
-0.002037265475369725 -0.0004885837832797249 -1.626303258728257e-19 -0.002629560963254233 0.006645615060717948 -5.458685004431406e-05 
0.02360681604676821 -0.01515047126023078 -0.002464232574530795 -0.0102139719577272 -0.001042304828602702 -0.005507450331950588 
0.001452081767341312 -0.0005045980553298887 -0.0008560182752961343 0.000185218842491148 0.001691189946577072 -0.0009864656992575683 
0 0.0002327584740384122 0 -0.0001246740201624114 0 -0.0006938427186509411 
0 0 0 0 0 0 
0 0.0008782703912837782 -3.388131789017201e-21 -8.804576849054023e-05 0 -0.0006083491910048347 
0 0 0 0 0 0 
0 5.818961850960305e-05 0 -3.116850504060285e-05 0 -0.0001734606796627353 
0 0 0 0 0 0 
0.01627279763106774 -0.008161688024029782 -0.0001101801729148896 -7.861703084009411e-05 -0.0008980786932010555 -0.01626723613037918 
0 0 0 0 0 0 
0 0 0 0 0 0 
0 0 0 0 0 0 
-0.0003192965934322883 -0.008467234811079988 -0.0003183221704969038 -3.070296525607975e-05 -0.0002249619469559189 0.001640296208160913 
0 0 0 0 0 0 
0 0 0 0 0 0 
0 0 0 0 0 0 
0.003121870493793837 -0.00225764604713987 -0.009099511522076512 0.01124193020066947 -0.001109495808430888 -0.001913662034323739 
0 0 0 0 0 0 
0 0 0 0 0 0 
0 0 0 0 0 0 
0 0 0 0 0 0 
0 0 0 0 0 0 
0 0 0 0 0 0 
0 0 0 0 0 0 
0.006595493710079105 0.001465937741803184 0.002683527383182993 -0.005013904369401911 -0.002986769556314356 -0.0003037516399411593 
0 0 0 0 0 0 
0 0 0 0 0 0 
0 0 0 0 0 0 
0 -0.0001078520782709516 0 3.453455217673456e-05 0 0 
0 0 0 0 0 0 
0 0 0 0 0 0 
0 0 0 0 0 0 
0.0128382541122059 -0.0004884106475825628 -0.001543324608619913 0.003299838840370693 -0.002218991616861775 -0.008045354190141343 
0 0 0 0 0 0 
0 0 0 0 0 0 
0 0 0 0 0 0 
0 -0.0002869030377660498 -0.001225327607587557 0.00129909184278484 0 0 
0 0 0 0 0 0 
0 0 0 0 0 0 
0 0 0 0 0 0 
0.01285882308735388 0.009379702929267309 -0.007720427761638374 0.01599561969527489 -0.02948967889989867 7.878553680759511e-05 
0 0 0 0 0 0 
0 0 0 0 0 0 
0 0 0 0 0 0 
0 0 0 0 0 0 
0 0 0 0 0 0 
0 0 0 0 0 0 
0 0 0 0 0 0 
0 0 0 0 0 0 
0 0 0 0 0 0 
0 0 0 0 0 0 
0 0 0 0 0 0 
-0.002214554017087473 0.002426458031080945 -0.001714996226901034 -0.002871372693542042 0.01320121921766003 -0.006735678417062007 
0 0 0 0 0 0 
-0.0005378433751180397 0 -1.01643953670516e-20 0 0.0001760042985287434 0 
0 0 0 0 0 0 
0 0 0 0 0 0 
0 0 0 0 0 0 
0 0 0 0 0 0 
0 0 0 0 0 0 
-0.001635000015366477 0 0 0.0006179283100267917 0 0 
0 0 0 0 0 0 
0 0 0 0 0 0 
0 0 0 0 0 0 
0 0 0 0 0 0 
0 0 0 0 0 0 
0 0 0 0 0 0 
0 0 0 0 0 0 
0 0 0 0 0 0 
0 -0.0004982502730910114 -0.0001194703089568284 0 -0.0003129168340486898 0.0005247436486659189 
0 0 0 0 0 0 
0 0 0 0 0 0 
0 0 0 0 0 0 
0 0 0 0 0 0 
0 0 0 0 0 0 
0 0 0 0 0 0 
0 0 0 0 0 0 
0 0 0 0 0 0 
0 0 0 0 0 0 
0 0 0 0 0 0 
0 0 0 0 0 0 
0 0 0 0 0 0 
0 0 0 0 0 0 
0 0 0 0 0 0 
0 0 0 0 0 0 
0 0 0 0 0 0 
0 0 0 0 0 0 
0 0 0 0 0 0 
0 0 0 0 0 0 
0 0 0 0 0 0 
0 0 0 0 0 0 
0 0 0 0 0 0 
-0.004711611055636227 -0.001181627073947554 -0.0001438892898885586 0.003851597081940562 -8.726540594215263e-05 0.00297160658537382 
0 0 0 0 0 0 
0 0 0 0 0 0 
0 0 0 0 0 0 
-0.003569302152549669 0.002909779728087929 0 -0.00108535797349316 0 0 
0 0 0 0 0 0 
0 0 0 0 0 0 
0 0 0 0 0 0 
0 0 0 0 0 0 
0 0 0 0 0 0 
0 0 0 0 0 0 
0 0 0 0 0 0 
0 0 0 0 0 0 
0 0 0 0 0 0 
0 0 0 0 0 0 
0 0 0 0 0 0 
0.01197606907240943 0.001647349844649434 -0.001108507897633309 -0.001916783458760909 0.007892353648337277 -0.0161043785359074 
0 0 0 0 0 0 
0 0 0 0 0 0 
0 0 0 0 0 0 
-0.002212232315652749 0.002728595598106395 -0.005103879194443446 0.006837090831835878 0 0 
-0.004105106795378337 0.002728595598106395 -0.00198484190895023 0.002168607671932871 -5.241804560988343e-05 0.002115505709204126 
-0.001649980498472307 -0.002094621149400785 0 9.055355680218037e-05 -0.00143210914504506 0.001593002416068746 
-0.01503718285690132 -0.0008099936815603834 -0.001547764341827279 0.001697630239964727 -0.0009569864987762706 0.01271331008599734 
0 0 0 0 0 0 
0 0 0 0 0 0 
0.004294261447537027 0 -8.216782957714811e-05 -0.0002826022021020881 -0.002053044630750248 2.224583328664529e-05 
-0.01649867821845504 0 0 0 5.421010862427522e-20 0.01101208763913018 
0 0 0 0 0 0 
0 0 0 0 0 0 
0 0 0 0 0 0 
0 0 0 0 0 0 
0 0 0 0 0 0 
0 0 0 0 0 0 
-0.003094259806705079 0 0 -0.0002598782815186665 0.003426512873722089 -0.000455911084200907 
-0.01375241073461793 0.01927543097608646 -0.00564208676643326 -0.0005259121926508468 0.01189042383240663 0.001863337431656608 
0 0 0 0 0 0 
0 0 0 0 0 0 
0 0 0 0 0 0 
0 0 0 0 0 0 
0 0 0 0 0 0 
0 0 0 0 0 0 
0 0 0 0 0 0 
0 0 0 0 0 0 
0 0 0 0 0 0 
0 0 0 0 0 0 
0 0 0 0 0 0 
0 0 0 0 0 0 
0 0 0 0 0 0 
0 0 0 0 0 0 
0 0 0 0 0 0 
0 0 0 0 0 0 
0 0 0 0 0 0 
0 0 0 0 0 0 
0 0 0 0 0 0 
0 0 0 0 0 0 
0 0 0 0 0 0 
0 0 0 0 0 0 
0 0 0 0 0 0 
0 0 0 0 0 0 
0 0 0 0 0 0 
0 0 0 0 0 0 
0.0002326548842025141 -8.704966428819124e-05 4.065758146820642e-20 -0.0002777710291796814 0.000145412958788389 0.000466595584829055 
0 0 0 0 0 0 
0 0 0 0 0 0 
0 0 0 0 0 0 
-0.0006798531684934971 0 2.541098841762901e-21 0 1.135024149320762e-19 0 
0 0 0 0 0 0 
0 0 0 0 0 0 
0 0 0 0 0 0 
0 0 0 0 0 0 
0 0 0 0 0 0 
0 0 0 0 0 0 
0 0 0 0 0 0 
0 0 0 0 0 0 
0 0 0 0 0 0 
0 0 0 0 0 0 
0 0 0 0 0 0 
-0.0001613857500884017 -7.314342336651902e-05 0 0 0 6.642050874316248e-05 
-0.000594740000609487 -0.004289843957864054 -0.000639517271507584 -0.002384512611206816 -0.001109602631796773 0.009007056566129386 
0 0 0 0 0 0 
0 0 0 0 0 0 
0 0 0 0 0 0 
0 0 0 0 0 0 
0 0 0 0 0 0 
-6.776263578034403e-21 0.0001732026690196325 0 4.065758146820642e-20 0 0 
0 0 0 0 0 0 
-0.006636696946958244 0.01276790750660973 -0.0004135689652842898 -0.003370346875585756 0 -0.002753723023611105 
0 0 0 0 0 0 
0 0 0 0 0 0 
0.01650105295932914 -0.003580706579192344 -0.0001232517443657221 -0.0006102337799233841 -0.005172573354858779 -0.005999026883068449 
-0.01858976784540674 0.01223071808251414 -0.0004478845032900438 0.0004244075599911818 -0.002958087807033931 0.004894310254341287 
0 0 0 0 0 0 
0 0 0 0 0 0 
0 0 0 0 0 0 
0 0 0 0 0 0 
0 0 0 0 0 0 
0 0 0 0 0 0 
-0.003094259806705079 0 0 -0.0002598782815186665 0.003426512873722089 -0.000455911084200907 
0.004351502203540803 -0.002332034389698714 -0.0005869299184106805 -0.0006279235740229087 -0.0002221138137330449 0.006635201525449352 
0 0 0 0 0 0 
0 0 0 0 0 0 
0 0 0 0 0 0 
0 0 0 0 0 0 
0 0 0 0 0 0 
0 0 0 0 0 0 
0 0 0 0 0 0 
-0.001085008218538811 0 0 0 -0.0001179916263930804 0.0006987432893761321 
0 0 0 0 0 0 
0 0 0 0 0 0 
0 0 0 0 0 0 
0 0 0 0 0 0 
0 0 0 0 0 0 
0 0 0 0 0 0 
0 0 0 0 0 0 
0 0 0 0 0 0 
0 0 0 0 0 0 
-3.388131789017201e-21 8.660133450981624e-05 0 2.032879073410321e-20 0 0 
0 0 0 0 0 0 
-0.002212232315652749 0.003575134787298758 -0.003165495833491066 -0.001628197646493591 0 -1.084202172485504e-19 
0 0 0 0 0 0 
0 0 0 0 0 0 
0 0 0 0 0 0 
0 0 0 0 0 0 
0 0 0 0 0 0 
0 0 0 0 0 0 
0 0 0 0 0 0 
0 0 0 0 0 0 
0 0 0 0 0 0 
0 0 0 0 0 0 
-0.01262313396168573 -0.002685603149859837 -0.0002877785797771172 -0.004593071533026187 0.007887773259844563 0.007418322511049824 
-0.02626735475369312 2.459210204736401e-05 -0.003521579510464081 -0.005152310475452505 0.02352118238002433 0.01362942445872609 
0 0 0 0 0 0 
-0.0008941344646657552 -0.000515928858111089 0 0.001004137675693405 0 0 
0 0 0 0 0 0 
-5.421010862427522e-20 0.0001703557272966957 -0.002964040066699426 1.626303258728257e-19 -0.0002504716297838969 -5.421010862427522e-20 
0 0 0 0 0 0 
-0.000178826892933151 -0.0001031857716222177 0 0.0002008275351386808 0 0 
0 0 0 0 0 0 
-0.002212232315652749 0.002966078504007108 5.839987800838124e-05 -0.001628197646493592 -0.0002504716297838969 -2.710505431213761e-20 
0 0 0 0 0 0 
-0.0001586550443268337 -0.000224832529892821 0 0.0004492459153470991 0 0 
0 0 0 0 0 0 
-5.288501477561121e-05 -7.494417663094031e-05 0 0.000149748638449033 0 0 
0 0 0 0 0 0 
0 0 0 0 0 0 
-0.004795648958416365 -0.002787980131362666 0.008828437249222464 0.001207303353657959 -0.006717381723928624 0.002831398163932717 
0.004418885613128865 0.008457846579612292 0.04371846146829303 -0.08067914898603158 -0.04749250701245235 -0.02213378049677461 
0.003356148434936239 -0.03496204116762532 -0.00899648611443328 0.01475366122403571 0.004961534590463774 0.01093567441247926 
-0.02466671207962992 -0.0258073077934434 0.001381138229034144 0.02118643419546956 -0.001830887914857638 0.02135125137162904 
0.006292801186672406 0.00100097267180125 0.01057757786293821 -0.004119776514887034 -0.008527722291191408 -0.005947296466108359 
-0.01836810369538345 0.005938205742590551 0.03461649794562272 -0.0342107851879158 -0.007544508714231362 -0.0002579836139877456 
0.002753719265841136 0.004506994231348964 0.003748402175252246 -0.004378425264961121 -0.000983518338886156 -0.007728855767147354 
0.004396889184846418 -0.007301088234850585 -0.007291866368187599 -0.006024887943429981 0.009195154978868482 0.001318287382689688 
-0.03642772635819419 0.003867060888939644 0.02902053048067837 -0.003246891060541786 -0.02741781685792352 0.01803289686145032 
0.007559071264478432 -0.005769939891020305 -0.00775627568203521 0.01909943665424307 0.002164102916670129 -0.01284793634641859 
-0.01398882885795314 -0.02141190745059223 -0.0007731226664937519 0.01872825884673438 0.00214067420969286 0.02119903009632424 
-0.002140595083127339 -0.009300641333894683 -0.005340497435126146 0.009688695584612359 0.001281279566872826 0.01415238494058518 
-0.01667158254568061 -0.01905733126414116 -0.004634902346169226 0.02267534567869793 -0.0009655219283889067 0.005122732435436091 
0.004382484315799164 -0.01569546749766892 -0.0007110838224527782 0.009365803567321087 -0.001105274000759361 0.002177800734021709 
0.02563939476255462 -0.01520770819562672 -0.002638633770834069 0.008793912335274776 -0.001115991552476873 -0.004595369754854506 
0.0244272224501752 -0.01366365285898121 -0.001163754550216068 0.007587955297539865 0.00115514055262721 -0.00825016075473118 
-0.04550551103050304 -0.04800621147262575 -0.02196949160108029 0.07224270644164814 0.001722333446861911 0.01516762845588452 
-0.007111136125133338 -0.007865225146370732 -0.001704987468821348 0.007074330581663857 0.00230040493449281 0.00510469159203438 
-0.01567682796892513 -0.007767782184639499 0.008713384515674674 0.001428649811190566 0.00390449476457607 0.01105536307146821 
-0.0134485017612639 -0.007562974836009136 0.01383817295448657 0.003715007815779638 -0.0006970450861317346 0.006785551212011629 
-0.01855462120560788 -0.01034323466962506 0.01470913186385769 0.004168611698938868 -0.001014113454154048 0.005539990605701936 
-0.02398770421606198 -0.004233537304535843 -0.01127631174626474 0.001828586641909675 -0.001659353617891607 0.02041648122088406 
-0.02428275324615097 0.009568821501534512 -0.001039374811160074 -0.004714565544100104 1.883517848796784e-05 0.01309040913176676 
-0.02889035121765131 0.01526425955276715 -0.003113544525818477 -0.003584796889931866 -0.001959729190652435 0.01494809259623171 
-0.04057681712233103 -0.01149397226473547 -0.01395120507190712 0.00410544256260064 0.02047827103489341 0.01694146926363774 
-0.01346646371307815 0.005699655032429933 -0.01390775160710259 -0.01147629925976353 0.0221868759085216 0.01598892534538132 
0.006211035805170234 0.005587351779863741 -0.01478842074939038 -0.002659699080684125 0.0007501560952940875 -0.0001760969640419386 
-0.00799338581178408 0.005310097549492419 -0.002843173426734976 0.00243460155408982 0.001730967393562443 0.006456360783907641 
-0.009946594375571093 0.01354349134719395 -0.002459007096584017 -0.01275249212325711 -0.001428626642156037 0.00501921914524832 
0.0188341958098694 -0.002463293874560551 -0.004566468497087819 -0.004741306145955653 -0.002851340465642679 -0.01014231156500302 
0.004653094792933747 0.002289102039759186 -0.01037206144006243 0.01499182281281511 -0.002083085086446415 -0.006313279722506681 
-0.004199775237076609 -9.27011083585256e-05 -0.006938414087756851 0.004882128522366612 0.003130958679561145 0.00192128512976124 
-0.005506860856328044 0.005221264839573702 -0.003239806861592533 0.00304530650954161 0.006733793831087871 0.001268439075030744 
-0.04625635995970765 -0.005211274868882502 0.001322374786259926 0.01719234961621221 -0.0007960601606438387 0.01559048130800873 
-0.01548436957273291 -0.01017108857316198 0.002330279904196631 0.0115655445253069 -0.003346742379313584 0.01217064994809019 
-0.006005987554528673 -0.007898494809692643 0.01760798582091481 0.007357344310885539 -0.01112689281390815 0.00235686724784844 
-0.01903132669469157 -0.002774701920458666 0.005819542759574463 0.003765016488898691 -0.003674890000783456 0.01258682632802124 
-0.09259775912223568 0.03255790372393127 0.01201924294789041 0.01982440161871433 0.01926225240214172 0.03683505765495308 
-0.003252752605041284 0.0001546888040423621 0.01139022211031484 0.001262949181644894 -0.003763658938023295 0.0009850338177250461 
8.53669372064126e-05 0.0007432311137226537 4.472333961502706e-19 -0.0002451255652084059 0.01340116866035108 -0.004386642355261058 
0.000557816514606726 -0.0001908514095868051 0 -0.0004578838279532649 0 0 
0.003227177923759894 -0.0009019117216646006 0.0002895709034541264 -0.002534793830655577 -0.000837454613894798 -0.0005297079588330669 
0 0 0 0 0 0 
-0.004583704729188276 -0.001036391702269184 -0.008960500265084921 0.01926074654255682 -0.002031039206951813 -6.135915940433783e-05 
0.000557816514606726 -0.0001908514095868051 0 -0.0004578838279532649 0 0 
-0.02253639795577878 0.01828066882707404 0.006093297882384881 -0.01975680963329661 -0.002226220233404607 0.01239899412170142 
0 0 0 0 0 0 
0 0 0 0 0 0 
0 0 0 0 0 0 
0 -0.0006717980638049709 0.005583697523815694 -0.008235638785508608 -0.001224780305904069 -0.0002462566101001344 
0 0 0 0 0 0 
-0.002803355890322721 -0.003714094936260364 0.005517484939758178 -0.008014180477036057 0.001916548705908617 -0.0002713732045875808 
0.009148510453730918 -0.007377629029565303 -0.0005163090655660301 -0.003205186795672857 0.001200817186820561 1.626303258728257e-19 
0.009849582094354279 -0.02181211914993771 0.008707477646353337 0.0002309016401405999 -0.0006299315978673541 0.004133557818070429 
-0.0004822350855003213 0.002126541660454282 0.0004296485057662008 -0.0009936400152519898 -0.0001102276278802968 -0.001171253814833815 
0 0 0 0 0 0 
0 0 0 0 0 0 
0 0 0 0 0 0 
0 0 0 0 0 0 
0 0 0 0 0 0 
0 0 0 0 0 0 
-0.0006007028914600653 0.005470833543282923 0.00307069775981921 -0.004892855549565437 -4.501055319461499e-05 -0.0002844817067883866 
0 0 0 0 0 0 
0 0 0 0 0 0 
0 0 0 0 0 0 
0 -0.0006381377333174905 0.004988322778260359 -0.008772993255571186 -0.0009749264999652134 -0.0004155760529973208 
0 0 0 0 0 0 
4.336808689942018e-19 -0.002395259734094961 0.01034611041377087 0.0001953164117032282 -0.01038291155632181 -0.0003406901814558454 
0 0 0 0 0 0 
0 -1.01643953670516e-20 -1.355252715606881e-20 0.00141016896038949 0 -1.694065894508601e-21 
0 0 0 0 0 0 
0 0 0 0 0 0 
0 0 0 0 0 0 
0 0.001713849014108508 0 -0.0008511234381822528 0 -0.0007751913224756466 
0 0 0 0 0 0 
0 0 0 0 0 0 
0 0 0 0 0 0 
0.001016698491899162 -0.0003898707488204335 -0.001570793249486095 -0.005512430439133013 0.002245672782426381 -0.001986667885363939 
0 0 0 0 0 0 
0 0 0 0 0 0 
0 0 0 0 0 0 
0 0 0 0 0 0 
0 0 0 0 0 0 
0 0 0 0 0 0 
0 0 0 0 0 0 
0.005485462991560485 0.0007472944282952108 0.002028000214196341 0.001107609383930393 -0.001193651739327686 -0.008802852971729808 
0 0 0 0 0 0 
0 0 0 0 0 0 
0 0 0 0 0 0 
0 0 0 0 0 0 
0 0 0 0 0 0 
0 0 0 0 0 0 
0 0 0 0 0 0 
0.05004278200425668 0.003209785003510303 -0.003495260334849771 -0.007759148353858981 -0.01647280725195862 -0.04255031998482488 
0 0 0 0 0 0 
0 0 0 0 0 0 
0 0 0 0 0 0 
0 0.002907602206910222 0.0001823585594657472 -0.00167327676100105 0 0 
0 0 0 0 0 0 
0 0 0 0 0 0 
0 0 0 0 0 0 
0 -0.003617278234194108 0 0.003124269469799384 0 -0.0001338109265236383 
0 0 0 0 0 0 
0 0 0 0 0 0 
0 0 0 0 0 0 
-0.005229520648290812 0.0005912477423991501 -0.0002061405931576625 -0.009222362027074757 0.002659971665353258 0.0002811505406332276 
0 0 0 0 0 0 
0 0 0 0 0 0 
0 0 0 0 0 0 
0 0 0 0 0 0 
0 0 0 0 0 0 
0 0 0 0 0 0 
0 0 0 0 0 0 
0 0 0 0 0 0 
0 0 0 0 0 0 
-0.0009869658314106639 -0.0002343323462273855 -6.332865014527277e-05 0 0.001214281314889319 -0.000213060230154626 
0 0 0 0 0 0 
0 0 0 0 0 0 
0 0 0 0 0 0 
0 0 0 0 0 0 
0 0 0 0 0 0 
0 4.834087204337803e-05 0 -0.0001704094510641034 0 7.623296525288703e-21 
-0.0005522675353652057 -0.0005651860729938808 0.000335939988533556 -0.0004132011109915705 0.0007351648409728713 0.0004121620998601928 
0 0 0 0 0 0 
0 0 0 0 0 0 
0 0 0 0 0 0 
0 0 0 0 0 0 
0 0 0 0 0 0 
0 0 0 0 0 0 
0 0 0 0 0 0 
0 0 0 0 0 0 
0 0 0 0 0 0 
0 0 0 0 0 0 
0 0 0 0 0 0 
0 0 0 0 0 0 
0 0 0 0 0 0 
0 0 0 0 0 0 
0 0 0 0 0 0 
0 0 0 0 0 0 
0 0 0 0 0 0 
0 0 0 0 0 0 
0 0 0 0 0 0 
0 0 0 0 0 0 
0 0 0 0 0 0 
0 0 0 0 0 0 
0.0074363212625572 -0.006209013309916685 -0.001016032139375326 -0.004498829028950917 -9.493053740336602e-05 0.005897958377926451 
0 0 0 0 0 0 
0 0 0 0 0 0 
0 0 0 0 0 0 
-0.009789678331668508 -0.005648789709521693 0 0.01099407889329309 0 0 
0 0 0 0 0 0 
0 0 0 0 0 0 
0 0 0 0 0 0 
0 0 0 0 0 0 
0 0 0 0 0 0 
0 0 0 0 0 0 
0 0 0 0 0 0 
-8.660597951287968e-05 -0.0001893398500783581 0.0006959648729164352 -0.0002627222026840318 0 -0.0001192928286296961 
0 0 0 0 0 0 
0 0 0 0 0 0 
0 0 0 0 0 0 
-0.01127982932981509 -0.004330071114858964 0.003763508051183292 -0.000737595914463688 6.945670167485263e-20 0.008468946219689478 
0 0 0 0 0 0 
0 0 0 0 0 0 
0 0 0 0 0 0 
-0.006668667437684991 0.0008814443904307524 -0.0005490531284119162 -0.003714109090265681 -0.0006077477657304528 0.002933300534202805 
-1.355252715606881e-20 0.001950748025451409 0.004255214411980176 -0.002926344919794247 -0.000352077729232907 -0.003610324015260473 
-0.02268060646994187 7.676297388197046e-06 -0.0078345187767238 0.001478937645107485 0.005513698617249535 0.01249823350540949 
0.01410746983161907 -0.0001764290070797964 0.005297212532568455 -0.00506160437415473 -0.002590020794243279 -0.008935069388766799 
0 0 0 0 0 0 
0 0 0 0 0 0 
8.53669372064125e-05 0 0 -0.0001706173554096688 0 -7.669894925542337e-06 
0.009275742479393667 0 -0.006810386067012801 -0.002732153838225255 -0.001335594336804498 -0.005879127985514319 
0 0 0 0 0 0 
0 0 0 0 0 0 
0 0 0 0 0 0 
0 0 0 0 0 0 
0 0 0 0 0 0 
0 0 0 0 0 0 
0.001460407943797468 -0.0002824925783470482 0 -0.0006435852249437739 -0.000128157885678337 -0.0008179914113530601 
-0.0002427313320136285 -0.002655928003737883 -0.0005163090655660299 -0.0004578838279532649 0.001200817186820561 0.0006896410734333329 
0 0 0 0 0 0 
0 0 0 0 0 0 
0 0 0 0 0 0 
0.0002339631542840102 -0.0001696965357901849 0.0008913420122534748 -4.74225874420843e-05 -0.0008808594481469979 0.0006118149134872986 
0 0 0 0 0 0 
0 0 0 0 0 0 
0 0 0 0 0 0 
0 0 0 0 0 0 
0 0 0 0 0 0 
0 0 0 0 0 0 
0 0 0 0 0 0 
0 0 0 0 0 0 
0 0 0 0 0 0 
0 0 0 0 0 0 
0 0 0 0 0 0 
0 0 0 0 0 0 
0 0 0 0 0 0 
0 0 0 0 0 0 
0 0 0 0 0 0 
0 0 0 0 0 0 
0 0 0 0 0 0 
0 0 0 0 0 0 
0 0 0 0 0 0 
0 0 0 0 0 0 
0 0 0 0 0 0 
0 0 0 0 0 0 
0 -0.0002255422916676443 -0.0001262380550172564 0 -0.0003306429259067086 0.0001100230567536937 
0 0 0 0 0 0 
0 0 0 0 0 0 
0 0 0 0 0 0 
0 0 0 0 0 0 
0 0 0 0 0 0 
0 0 0 0 0 0 
0 0 0 0 0 0 
0 0 0 0 0 0 
0 0 0 0 0 0 
0 0 0 0 0 0 
0 0 0 0 0 0 
0 0 0 0 0 0 
0 0 0 0 0 0 
0 0 0 0 0 0 
0 0 0 0 0 0 
0 0 0 0 0 0 
-0.001589645272537517 -0.0008637649935975934 -0.001958545609766591 -0.002335491634281476 0.003281249864744323 0.003774537149057795 
0 0 0 0 0 0 
0 0 0 0 0 0 
0 0 0 0 0 0 
0 0 0 0 0 0 
-0.0003314113041362878 -0.000469648111474753 0 0.000938420680633229 0 1.694065894508601e-21 
-0.0003314113041362878 -0.0004696481114747527 6.776263578034403e-21 0.000938420680633229 0 6.776263578034403e-21 
0 0 0 0 0 0 
0 0 0 0 0 0 
0 0 0 0 0 0 
0 0 0 0 0 0 
0.001422549965626034 -0.001667957119669408 -0.0004978055702824953 0.0006952653615392401 0.003898218807324582 -0.001135461329182403 
-0.01002445003426759 0.01273669999068061 -0.003215848974037649 -0.001055454590094846 -0.001026918650065261 -0.007531658404674272 
0 0 0 0 0 0 
-6.628226082725754e-05 -9.392962229495057e-05 0 0.0001876841361266457 0 0 
0 0 0 0 0 0 
-6.628226082725754e-05 -9.392962229495057e-05 0 0.0001876841361266457 0 0 
0 0 0 0 0 0 
0 0 0 0 0 0 
0.001460407943797468 -0.0002824925783470482 0 -0.0006435852249437739 -0.000128157885678337 -0.0008179914113530601 
0.002222444082121125 -0.006388561431765521 -0.0005163090655660299 0.001982009941693129 -0.0008242673181477336 8.490522227698084e-05 
0 0 0 0 0 0 
0 0 0 0 0 0 
0 0 0 0 0 0 
0 0 0 0 0 0 
0 0 0 0 0 0 
0 0 0 0 0 0 
0 -0.0002057848825928561 0 0.0004678228597269085 0 6.03510974918689e-21 
-0.000507836677355816 -0.000169696535790185 0.001364143613584608 -0.0003725720229747781 -0.0009199791958395433 0.000752586281039967 
0 0 0 0 0 0 
0 0 0 0 0 0 
0 0 0 0 0 0 
0 0 0 0 0 0 
0 0 0 0 0 0 
0 0 0 0 0 0 
0 0 0 0 0 0 
0 0 0 0 0 0 
0 0 0 0 0 0 
0 -1.355252715606881e-20 -0.0009749070929900508 0 0 4.065758146820642e-20 
0 0 0 0 0 0 
0 -5.421010862427522e-20 8.131516293641283e-20 0 0 6.776263578034403e-21 
0 0 0 0 0 0 
0 0 0 0 0 0 
0 0 0 0 0 0 
0 0 0 0 0 0 
0 0 0 0 0 0 
0 0 0 0 0 0 
0 0 0 0 0 0 
0 0 0 0 0 0 
0 0 0 0 0 0 
0 0 0 0 0 0 
-0.005778865358498387 -0.0008232797262367541 -0.0003194077187725625 -0.0009392868033805537 0.0087103932261153 -0.003747970304411065 
0.002147662961954565 -0.01244968135162663 -0.002392196977567041 -0.003360178840611209 0.004881040153024345 0.002881700757346493 
-0.003043268661103404 0.003152682740716571 0 0 0 -0.0004463652612295777 
-0.006086537322206808 0.006305365481433143 -0.001299876123986733 0 0 -0.000892730522459155 
0 0 0 0 0 0 
0 -4.923379005915621e-21 -0.0002664793053073891 0 0 -4.235164736271502e-21 
0 0 0 0 0 0 
0 0 0 0 0 0 
0 0 0 0 0 0 
0 5.43689273018854e-20 -0.0002664793053073891 0 0 -6.776263578034403e-21 
0 0 0 0 0 0 
0 0 0 0 0 0 
0 0 0 0 0 0 
0 0 0 0 0 0 
0 0 0 0 0 0 
0 0 0 0 0 0 
-2.846030702774449e-19 -0.001839482529848701 0.009594113376556473 -0.0002588478149298599 -0.009152665779840327 -0.0002839084845465379 
0.02055691888396102 -0.0205023183281692 -0.01432184494118894 -0.02661791150797974 -0.0272739224511309 -0.02400254505616356 
-0.01286300333361686 -0.01397972350284488 0.005515527877907289 -0.008826631762640329 0.01494867851354001 0.006348455264227242 
-0.01590285500932156 -0.01256047195339929 0.02324647432814744 -0.01474537033927814 -0.002706908891836068 0.0151764625502722 
0.01678139135662505 0.01067751692684392 0.01661041185947149 -0.02209970209599807 -0.008135602140375699 -4.739292039043987e-05 
-0.01930207331527919 -0.01690534437702394 0.01172205685093145 0.01288009778009933 -0.004249239745618426 -0.004248569953381169 
0.006120276661776849 -0.0002103458772113232 0.006365289602277174 -0.01327200087644723 -0.004826454546664683 -0.004223881333460351 
0.008423728015771728 0.006368046340994348 0.00815063097080527 -0.01938851304569905 -0.004253224653174344 -0.006886022417998109 
-0.01444150923072497 0.02677844228262228 0.0530186047807813 -0.05782197939570283 -0.0109127374363114 -0.01208553231494318 
0.007044761005323983 0.001293201031303303 0.00922469673228527 -0.02110680700464649 -0.0003195669977353392 0.0006213636938137466 
0.001819725520100263 -0.003800355148748068 0.005293852148069519 -0.001734195040982412 -0.002380948104752304 0.005573777198335155 
-0.006287380277108998 -0.003018880077650808 0.00492177701351181 -0.007424568616736076 -0.003447703140717846 0.01301759404724013 
-0.003101214136905345 -0.008551068161051986 0.0009257913071210264 0.001983490322265277 -0.003579566409883043 0.01919368299670573 
-0.0005291909753017747 0.006179002862731575 0.002139145677589317 -0.006896827341279195 -0.001657333925154197 0.001792533642034166 
0.0147831685194584 -0.009492047766945108 0.002399161427556994 -0.001199699672485405 -0.001108138949063457 -0.01027181403775414 
0.02521396895996528 -0.02773007461959277 -0.01045855430166948 0.008576627914199851 0.003719895778972502 -0.01465758370218435 
-0.01021664096563064 -0.01359369169874909 0.01284472847280257 0.005901502893579765 -0.009224987645390093 -0.002840490157919696 
-0.01036123281570746 -0.001997258715195072 0.01348524393605579 0.009314185034431259 -0.01041443901535366 -0.003232130498467703 
-0.00695105127021206 -0.007274121895650091 0.009504522436212467 0.004568424984916123 -0.004505156149528029 0.008903525797955766 
-0.002832355125863754 0.0001769926238538503 0.003565427028615888 -0.0006014171641845836 -0.002877906742728234 0.002383981365998674 
-0.0091225626992315 -0.01232894434275634 0.01040927300118987 0.0156167027653174 -0.003959665501779713 -0.003464014860535125 
-0.01040107606138604 0.0001070807705274071 0.002725555128296953 -0.0009795771146950611 0.0006132674721801598 0.001334809296469496 
-0.01365938881671761 0.002516859554188385 0.004915252766242127 -0.004134084657375127 -0.002714666318340507 0.007219023447763157 
-0.00926397173208874 0.02137997398792452 0.001307440400196206 -0.0117377929895877 -0.002969959967931458 -0.006164568681274566 
-0.02771669255525102 0.001318447424655154 0.001370714759191803 0.001990492649450431 0.004396081209017272 0.007250320296082184 
